348 128
333 -0.22229142 0.11495814 0.12299412 -0.21326333 0.09436244 -0.112010986 -0.03604254 0.15182494 -0.0065531894 0.12250394 0.17867681 -0.100847006 0.007441084 0.024700306 0.06882117 -0.057612557 -0.056174826 0.1353684 0.17206855 0.13213466 0.06876933 -0.02436501 -0.015197731 -0.063973986 -0.08686663 0.017387176 0.081684396 -0.18209355 -0.22374399 0.012748142 -0.034375444 -0.09856932 -0.15588878 0.30092227 -0.22120906 -0.28446525 -0.07610541 0.114684224 -0.11636584 -0.01248662 0.10726382 0.058124993 -0.1821157 -0.017236607 -0.1287938 -0.11164708 -0.09803386 -0.19581337 -0.11950596 -0.07183447 -0.11118246 0.08087475 -0.014698747 -0.1808804 -0.02847303 -0.02493935 0.0652139 0.23494796 -0.013723848 0.023706514 0.07583423 0.07982769 0.035503335 -0.19279818 -0.17624515 0.080482826 -0.07244589 0.12126869 0.037669305 0.16233896 -0.1756073 -0.21826115 -0.25742555 -0.079750136 -0.09937489 -0.022223622 0.19980836 -0.026108243 0.14938705 -0.07884847 0.11781662 0.09159665 -0.1323109 0.086289264 0.010800625 -0.04261963 -0.12676278 0.045429807 0.09594403 -0.13903987 -0.07509497 -0.07915014 -0.047504105 0.13115862 -0.07486065 -0.06404559 0.18200782 -0.067013845 0.07505261 -0.099239096 0.014782535 0.04052491 0.073383965 0.25694254 -0.04943864 0.116769366 -0.015672537 -0.07277562 -0.08339749 0.17364019 -0.17693456 -0.00033702547 0.111863494 -0.116443664 0.20029712 0.016864058 0.039574873 -0.030846242 0.13448088 -0.04486337 -0.051365584 -0.009961492 -0.38246447 -0.08755552 0.13003966 -0.007364289 0.07010993 0.046988428
59 0.011507013 0.08608159 0.052085873 0.043636814 -0.09392956 0.06586499 0.01999757 -0.054293092 -0.020097043 -0.064201355 0.08227246 -0.16316926 -0.028926224 -0.08702665 0.011827298 0.15277757 0.034389336 0.006922828 0.10481101 -0.20824492 -0.10994233 -0.11832889 -0.039721254 0.020796584 0.13749206 -0.05454758 -0.003796772 -0.051445954 -0.23875749 -0.040478475 0.1257429 0.025534453 -0.0865663 0.18157181 0.03925216 -0.45546556 -0.14992288 0.30115938 0.14041603 0.11028389 -0.051172186 0.15323512 -0.13853914 -0.016641585 0.03623568 -0.07136114 -0.36341292 -0.061687596 0.0766402 0.1448998 0.004581997 -0.005757877 -0.09874451 0.055510968 0.03777944 -0.10612794 0.11354011 0.28485414 -0.118542254 -0.12156279 -0.024934607 -0.07238015 0.11998002 0.15882032 -0.09032364 0.36977968 -0.15567689 0.05724935 -0.15933624 0.13646194 -0.09012425 -0.15012297 -0.022991205 -0.19913681 0.01471329 0.04879003 0.25519705 -0.031803675 0.1304047 0.024348585 0.23988779 -0.07371129 -0.19114491 0.14330442 0.049119867 0.064496785 -0.14487943 -0.016541839 0.08347158 -0.105006434 0.058348987 -0.019866925 -0.023299817 0.32846087 -0.14001878 -0.15444867 0.21001805 0.042667173 -0.12119944 0.024116958 -0.006846722 0.04224891 0.066575915 0.20663966 -0.041127477 -0.0018334568 0.10762074 -0.011518359 0.14442405 0.07414321 -0.002573207 0.14866877 -0.04728402 0.09352247 -0.086209565 -0.07781212 -0.0039754594 0.087752454 0.2529577 -0.0954762 0.17834148 -0.16535573 -0.18748893 -0.18698306 -0.069154024 -0.0034714602 0.0028543877 -0.178347
120 -0.018125957 0.030504167 -0.22600503 0.042957384 -0.12398839 -0.040432464 0.113698006 -0.152084 -0.03710866 -0.01900815 0.07836751 -0.08799041 0.04270859 -0.10510534 0.040148024 0.07875049 0.0040876823 0.102414295 0.054484155 -0.22298442 0.043326247 -0.1234758 0.0398831 0.053493712 0.048775148 0.08766393 -0.008875543 -0.032835912 -0.14099227 0.068096586 -0.014299985 0.094101764 -0.11443365 0.19221848 -0.017213827 -0.54845273 -0.19208859 0.41796148 0.07685457 -0.23047708 -0.037405778 0.41486332 -0.09199215 -0.04652701 0.1763268 -0.13287745 -0.29714155 -0.12570707 -0.019330833 0.0058189533 -0.09201516 -0.035994854 -0.11681797 -0.0627432 -0.024495976 -0.18011795 0.11402179 0.13101646 -0.20805779 -0.27609903 -0.08208659 0.03207811 0.11287577 0.18277523 -0.10704682 0.3186453 -0.28567764 0.13423958 -0.019205334 0.17251936 -0.0841627 -0.12544845 -0.13621145 -0.22993992 0.06318996 0.22021228 0.22649479 0.041913483 0.21484186 0.15881956 0.18753469 0.008940623 0.010684845 0.07012189 0.1801769 -0.0007206487 -0.0372185 -0.031234944 0.0937694 -0.24557693 -0.0102217635 -0.011686395 -0.1271872 0.23881115 -0.16614674 -0.15176041 0.19866814 0.0660351 0.07740392 0.23671444 0.041630622 0.04930176 0.1379807 0.20014086 -0.13734415 0.014186275 0.06404099 0.058178026 0.07785514 0.035670877 -0.13417411 0.010954954 -4.862864e-05 -0.1543588 -0.034063917 0.050191402 0.14578782 0.19797362 0.2675098 -0.28082636 0.16978286 -0.083753295 -0.1420568 -0.09883487 -0.15026577 -0.04746353 -0.17054674 -0.17307678
35 -0.049557574 0.13603614 0.009075807 0.035403877 -0.08245288 0.07239281 0.02231468 -0.03267642 0.0198459 -0.056845106 0.04863331 -0.18411094 -0.1223083 -0.14563318 -0.05883949 0.19333375 0.09888156 0.021912469 0.025631983 -0.15053988 -0.029973602 -0.123195544 0.023669751 0.18182951 0.08567276 0.06906141 0.043698136 0.0023076355 -0.27189258 0.065987535 0.111398116 -0.018197509 -0.12653384 0.33359337 0.018705986 -0.3317812 -0.16750237 0.28030393 0.17762366 0.12536782 0.019581275 0.24402599 -0.15167025 -0.02532192 0.1122618 0.016684419 -0.26755518 -0.0694004 0.019483656 0.09162423 -0.008212079 0.008442833 -0.017541464 0.116713524 -0.051607862 0.036408413 0.06494722 0.20824717 -0.106005564 -0.1622502 -0.037089415 -0.007823746 0.102776 0.12869479 -0.095194474 0.39078158 -0.11312658 0.084876314 -0.15300941 0.19321536 -0.050727237 -0.032775685 -0.009727602 -0.18877119 0.052721858 0.07143944 0.2868166 -0.08544922 0.20710127 -0.04283062 0.20848216 -0.030274944 -0.2583812 0.06463373 0.17557082 0.11121942 -0.13237256 -0.08131717 0.20240073 -0.04594415 0.11726113 0.08696332 -0.09271882 0.20798017 -0.13879149 -0.092092946 0.21062109 0.10780271 -0.2117429 0.06654831 -0.08453203 -0.062445153 0.05717224 0.2250892 0.010860829 -0.025284471 0.15298218 -0.062884025 0.17456514 0.07179764 0.023925392 0.05830821 0.033302523 0.11340443 -0.05078118 -0.02833751 0.033144478 0.054013498 0.26594222 -0.045816418 0.2236014 -0.20434435 -0.16840509 -0.15237886 -0.123224914 0.026881743 0.014699148 -0.1921504
29 -0.056197412 -0.026672922 -0.13517188 0.03173357 -0.14882156 0.049306586 0.102860995 0.030772308 -0.0144439805 -0.07388773 -0.025136512 -0.19723706 -0.082929455 -0.11886662 0.018758938 0.13223659 0.051969063 0.041175887 -0.004995214 -0.14244524 -0.09282577 -0.17363493 0.009348084 0.10544569 0.07770793 0.015807118 -0.0065472513 0.050095517 -0.20205528 -0.014536427 0.11802892 0.010197197 -0.042042073 0.28648084 0.08452306 -0.38977867 -0.25783277 0.2601567 0.20582251 -0.004662234 -0.031608265 0.28419453 -0.106196515 -0.030971782 0.19084187 -0.0051285685 -0.34251198 -0.18473671 0.022248004 0.07578372 -0.16946234 -0.0561652 0.10595863 0.092311144 0.029039307 -0.028538566 0.15878628 0.2622622 -0.06325875 -0.107156314 0.06659433 0.077979974 0.12714906 0.036687445 -0.09614745 0.3409925 -0.19338764 0.10730527 -0.10120105 0.058447387 -0.008953701 -0.14029393 -0.053949136 -0.1872611 -0.037840743 -0.024823196 0.23969366 -0.01127442 0.14256725 -0.06681215 0.21847838 0.0317379 -0.10786819 0.09618374 0.15235734 -0.004251453 -0.076870605 -0.11526504 0.11429957 -0.085216366 0.11460005 0.037017986 -0.07204902 0.23390356 -0.08915674 -0.08016194 0.2632511 0.039135817 -0.0719908 0.07501553 -0.019472443 -0.024506768 0.078079686 0.26706573 -0.11208005 0.025208922 0.083360605 0.087329544 0.13208744 0.10705635 0.09558899 0.06678062 -0.055135775 0.15317336 -0.044844802 0.013757601 0.08164916 0.16345087 0.26241624 -0.05420558 0.25321382 -0.1630495 -0.0602982 -0.14511807 -0.14291432 -0.030445693 -0.0006627315 -0.21306555
70 -0.103448674 0.05957784 -0.033277705 -0.07320586 -0.084036574 0.13298532 0.008946098 0.021840414 0.1454374 0.02703078 0.011969354 -0.11313987 -0.033865783 -0.0019389006 -0.018878464 0.24375774 0.04252827 -0.17540583 -0.040305976 -0.09540325 -0.044567917 -0.15310805 -0.034699082 0.087079994 0.11435884 0.009941199 0.06549543 0.0971666 -0.15547785 0.042606615 0.06751755 -0.047161847 -0.2038665 0.24003147 0.034679897 -0.28970572 -0.005390791 0.182579 0.27330437 0.020736158 0.017416518 0.35785255 -0.11872495 -0.018716719 0.13983278 -0.059628498 -0.31033212 -0.21284404 0.051986672 0.14154662 0.020439591 0.0033980072 0.004097333 0.08471273 -0.07427065 0.13252391 0.12992236 0.18046543 -0.041012745 -0.13685328 0.016840508 0.0038217385 0.05522244 0.06783318 -0.22648259 0.30255395 -0.25669205 0.111226395 -0.17901523 0.035555873 -0.11190411 -0.23765838 -0.113404796 -0.16065626 0.11451437 -0.08028917 0.15929359 -0.010668814 0.07559841 -0.013878151 0.052563574 0.045834817 -0.16581419 0.09803126 0.16128567 -0.009998098 -0.20854804 -0.08520373 0.13786606 -0.26292393 -0.011709867 -0.06280796 -0.097407974 0.23363346 -0.019600013 -0.0723991 0.24347095 0.009202285 -0.16585422 0.08607387 -0.021102581 -0.2629575 0.10937274 0.10295718 -0.0143220965 0.10961788 0.09818173 0.061195172 0.21302126 0.013988152 0.029962791 0.056711033 -0.032137226 0.0050854767 -0.08003864 -0.08932413 -0.18098813 0.029214812 0.3673564 -0.07035043 0.17672373 -0.19050173 -0.3537016 -0.1148327 0.010864484 -0.0051109265 -0.109020635 -0.026792854
6 0.056680918 0.08485708 0.0035662416 0.08924921 -0.12609966 -0.004547851 0.003845975 -0.004471504 0.07784659 -0.011171452 0.022956174 -0.11410561 -0.12872092 -0.20247218 -0.11855006 0.1517009 0.004015906 0.05863344 -0.012763474 -0.10685786 -0.027906112 -0.03766633 -0.06667561 0.11201571 0.07653925 0.037259847 0.016866622 -0.0075908615 -0.23795189 0.07700583 0.05622446 0.024627404 -0.057718102 0.31543937 0.09772642 -0.36967814 -0.12538351 0.29170316 0.15953438 0.019755306 0.044048384 0.3055089 -0.13793968 -0.10357358 -0.002297652 -0.081156015 -0.18069687 -0.07120374 -0.029301127 0.2154129 0.014032276 0.0057510734 -0.13736545 -0.061246376 -0.08420725 0.0650902 0.075190924 0.13002776 -0.09638145 -0.28016296 0.06333877 -0.097137466 0.11653642 0.14706363 -0.12873468 0.34448153 -0.11116565 0.09888341 -0.13543357 0.12747991 -0.11093637 -0.06361064 -0.06129021 -0.182762 0.06642676 0.015677387 0.16154788 -0.029367073 0.124810934 -0.10184677 0.26126078 -0.1140483 -0.11548215 0.027749468 0.13756822 0.056305956 -0.13363893 0.063404895 0.15345946 -0.09953079 0.058520436 -0.08045044 -0.061948128 0.23212223 -0.20881131 -0.16724408 0.20129396 0.13285762 -0.16186923 0.037093364 -0.11971511 -0.09150213 0.11492974 0.21670642 0.06785482 -0.09236201 0.10042546 -0.19469637 0.14652751 0.2037641 -0.07810155 0.13244565 -1.35751325e-05 0.045748647 -0.10187246 -0.009998559 -0.03778818 0.1598621 0.2643989 -0.1821952 0.15824509 -0.24880335 -0.20616755 -0.1502382 -0.038873006 0.12907343 0.03933457 -0.15660134
14 -0.02240934 0.0714162 0.039575074 0.057462774 -0.07745435 0.06283109 -0.059336543 0.021861179 0.008830874 -0.022787672 -0.030331053 -0.095596135 -0.14692533 -0.13954878 -0.043029223 0.21467914 -0.028372116 0.013844741 0.08983134 -0.19386426 -0.06401523 -0.10767785 0.010977519 0.017776456 0.113765985 0.12857316 0.09397772 0.0388961 -0.20931104 0.07578636 0.12728055 0.041724898 -0.083485685 0.2644038 0.07621999 -0.33315444 -0.12305052 0.390543 0.23567045 0.11175679 -0.060309753 0.23009013 -0.14602375 -0.046933945 0.06642635 -0.17841902 -0.33495593 -0.116411954 0.0073554125 0.14777158 0.034822017 -0.038681936 -0.10968956 0.10864785 -0.10656689 -0.020319762 0.030734802 0.21239603 -0.055759486 -0.10954224 -0.032758065 -0.11702866 0.19498055 0.14020813 -0.18232137 0.36865506 -0.2440417 -0.07416433 -0.27014807 0.11379889 -0.116259515 -0.10057293 -0.0063445214 -0.18526644 0.18977112 0.00078837515 0.25243947 -0.086543605 0.07374498 -0.054135937 0.19552699 -0.1353489 -0.2623956 0.0688674 0.13607766 0.13437767 -0.16859433 0.08707474 0.1990771 -0.075910054 0.06918241 -0.03148757 -0.014738812 0.26283908 -0.12999904 -0.09975164 0.21728854 0.04333552 -0.2359464 0.056459177 -0.1678876 -0.050733346 0.08849218 0.17376643 0.1271657 0.055068064 0.04850605 -0.13227788 0.22276035 0.09758181 0.05933413 0.12365028 -0.02641734 0.070450224 -0.09529176 -0.06098301 -0.0662846 0.022902025 0.26467702 -0.19196905 0.06316136 -0.27183428 -0.24589424 -0.15540488 -0.01820429 0.04123004 0.045802686 -0.18981351
50 0.06403967 0.25859827 0.034255903 0.11232736 -0.0854361 0.0057153543 -0.1519719 -0.004579595 0.09864318 -0.082032524 0.14867881 -0.07474629 -0.078513175 -0.056349598 -0.11602392 0.074152656 0.020482738 -0.026687808 -0.001023671 -0.18354975 -0.07607485 -0.17443068 0.11288821 0.05320001 0.1186842 0.040447626 0.12690175 0.09863612 -0.17777693 0.026714774 0.19203311 -0.10884808 -0.15805008 0.16798256 -0.065121554 -0.34166142 -0.09009124 0.26936236 0.30422676 0.19122656 -0.12272094 -0.009620091 -0.18903065 -0.03392968 -0.03970231 -0.18355945 -0.18926817 -0.043210108 0.0381085 0.13725865 0.17912778 0.030452635 -0.024678454 -0.043522857 -0.11478533 -0.1446451 0.08015421 0.28999266 0.12747684 -0.12769546 -0.07325329 -0.14243668 0.23436618 0.107295804 -0.32760823 0.23672973 -0.094007656 -0.057485923 -0.13595787 0.087785944 -0.07228334 -0.021445988 -0.10680634 -0.17691748 0.18825583 0.10265137 0.2713113 -0.15110782 0.131081 0.023831822 0.1635475 -0.1473018 -0.33094442 0.12851423 0.17336485 0.03257915 -0.18889366 0.07423843 0.17902741 -0.21769267 -0.0007002016 -0.029224096 0.033158164 0.31686032 0.018064428 -0.00024187268 0.24222526 0.110637784 -0.18121436 -0.11996397 -0.022982853 -0.07013339 0.008421834 0.25913352 0.034020092 -0.059104856 -0.024549434 -0.13395493 0.01788296 -0.08172506 0.05452707 0.14793806 0.008004337 -0.002573305 0.030972566 -0.11046532 -0.09219467 0.03940864 0.1104271 -0.03753015 0.01459875 -0.25294766 -0.103824325 -0.17430128 0.0820556 0.08111138 0.053689968 -0.062176842
49 -0.10551152 -0.011950048 -0.15723681 -0.025383307 -0.15557395 0.071553655 -0.03627455 0.006009392 -0.0246364 -0.10910302 -0.058391415 -0.21737541 0.0016978462 -0.11832108 0.038526665 0.17896788 0.027468909 0.064292476 0.16273013 -0.17789368 -0.10351783 -0.16523468 -0.04105107 -0.07470843 0.10330735 -0.04418765 -0.06272334 -0.017362809 -0.06313795 -0.02638795 0.037773095 0.028478613 -0.17505288 0.20623945 0.057338677 -0.37332082 -0.19176485 0.23663217 0.109540746 0.05333237 0.11667116 0.3078947 -0.15562704 -0.018652651 0.16705911 -0.151613 -0.3319078 -0.19173878 -0.024724115 0.11466893 -0.049112033 -0.06220344 -0.038559143 0.0416757 0.010129058 -0.06599959 0.07269292 0.33589575 -0.16540425 -0.17530797 0.03213047 -0.06612755 0.1941882 0.1555968 -0.1439039 0.34784877 -0.12080498 0.13307391 -0.03203648 0.1846448 -0.19937842 -0.25028172 -0.13516505 -0.2106545 0.029093139 0.035155922 0.16128877 -0.09869011 0.14281029 0.1156406 0.19789651 0.03936174 -0.199555 0.11111531 0.11576954 -0.098187216 -0.06099051 -0.033012647 0.06613569 -0.09277816 0.006941743 0.027437447 0.08853732 0.269086 -0.086045064 -0.16374832 0.17110284 0.11147891 -0.108705424 -0.046909634 -0.07245222 -0.11612363 0.05500774 0.2553825 -0.05677978 0.0050026206 0.11745835 0.026414348 0.07509037 0.069479205 -0.015247961 0.17193337 -0.07710962 0.06488653 -0.147058 -0.024798758 -0.07197314 0.059833437 0.2395382 -0.19417931 0.15758766 -0.14592968 -0.23534472 -0.09006341 0.003532863 -0.071398206 -0.019489305 -0.16427954
2 0.005526694 0.120283335 -0.03298745 0.044576123 -0.12624323 0.08213325 -0.005305502 0.05482705 0.11097435 -0.051932883 0.0185969 -0.14671448 -0.03062583 -0.05521521 -0.09205985 0.28239223 0.051048018 -0.060401414 0.023467017 -0.13124755 -0.08875601 -0.12428271 -0.08782524 0.078067526 0.08829653 -0.013054717 0.040638734 0.10115366 -0.15758444 0.08482613 0.11334636 -0.025847262 -0.1354646 0.17657141 0.10913309 -0.34925222 -0.048236717 0.19217937 0.17536066 0.054381583 0.053353835 0.30642137 -0.16456385 -0.025357047 0.12614936 -0.13198844 -0.31271434 -0.17173132 0.0508511 0.20115677 0.10985413 0.03690584 -0.12028974 -0.05437167 -0.079006925 0.053730797 0.17730176 0.1533401 -0.016138338 -0.1786987 0.012473398 -0.08337378 0.1298617 0.10627191 -0.18488163 0.33328238 -0.24022931 0.114923745 -0.15798314 0.03097776 -0.10341648 -0.13327466 -0.05238246 -0.21803217 0.17623433 -0.049549215 0.17038785 -0.037922867 0.0903217 -0.027376667 0.12522392 -0.039356075 -0.19457345 0.014022486 0.13492505 0.027431948 -0.17138965 -0.020685459 0.11004175 -0.22215584 0.010061308 -0.0774576 -0.043435417 0.3507807 -0.024514643 -0.0797565 0.2221038 0.09900269 -0.1932901 -0.04199867 -0.022410477 -0.16618754 0.09980849 0.17505354 0.03466503 0.036973123 0.087330975 -0.0047219456 0.13384014 0.13013026 -0.04295445 0.07375245 -0.13438703 -0.020525368 -0.07702574 -0.1501214 -0.15812613 0.13468397 0.2568296 -0.09141609 0.10603237 -0.1715695 -0.2681911 -0.1262802 -4.498607e-05 0.040529195 -0.08926782 -0.13343963
107 -0.010744654 0.03322789 0.040004212 0.08019897 -0.045997903 0.06304064 -0.028513566 -0.057168275 0.039412983 -0.020748194 -0.019892324 -0.12064887 -0.109197795 -0.18431833 -0.11353426 0.23487726 -0.0073425937 0.015762918 0.102060065 -0.16654617 -0.039631523 -0.0670393 0.017259771 0.09882109 0.11503642 0.08979063 0.0895115 0.0044916314 -0.17618947 0.013570874 0.13501646 0.0033216067 -0.1375621 0.28457043 0.07940353 -0.32013258 -0.096878745 0.34309533 0.2319089 0.13559738 -0.02361459 0.24231619 -0.13949262 -0.00860379 0.046443142 -0.06637733 -0.2850434 -0.13215628 0.014209689 0.2239975 0.019875089 -0.08286458 -0.06893725 0.11023899 -0.06850719 0.030120002 -0.006490785 0.22542818 -0.15494415 -0.15377808 -0.086073495 -0.12721087 0.12783106 0.15974315 -0.15849839 0.4652457 -0.22108564 0.06949868 -0.23728618 0.17221247 -0.13162832 -0.06819388 -0.023409115 -0.18426412 0.1671101 0.050833672 0.23266308 -0.09566177 0.1103235 0.024761923 0.25119013 -0.076422185 -0.31556574 0.079327494 0.15360092 0.13118897 -0.16739006 0.029911332 0.2064895 -0.019419122 0.10560907 -0.043507893 -0.06886123 0.24955755 -0.16903909 -0.13365114 0.24042538 0.11229153 -0.24945655 0.11444979 -0.16559513 -0.1270739 0.13622954 0.17476156 0.09475216 0.031332318 0.13915028 -0.07466293 0.28827396 0.023231188 0.050154474 0.08800823 0.04302515 0.06534296 -0.12745352 -0.035643533 -0.033104863 -0.039492156 0.30141106 -0.16301683 0.132341 -0.24766843 -0.3222871 -0.19953008 -0.08418061 0.06515124 0.010771148 -0.18756253
62 0.002546731 0.06240538 0.093838535 0.09567051 -0.1376591 0.17585215 -0.07304881 -0.043778144 0.078756906 -0.041949876 0.06062715 -0.093831 -0.067728214 -0.079399854 0.11172228 0.20882417 -0.08328832 -0.058356795 0.015876712 -0.09276463 -0.07140434 -0.1669129 0.0725541 0.039488267 0.08973984 0.010038766 0.04296476 0.031325158 -0.024114188 0.0138281435 0.044896647 -0.089296825 -0.12751773 0.16915318 0.072718695 -0.38229924 -0.09423975 0.36369637 0.07236666 0.09411976 -0.07324878 0.21608765 -0.11820138 0.056085635 0.090019174 -0.16263375 -0.32248172 -0.09315468 0.19304106 0.2774031 -0.106698945 -0.008036158 -0.023822138 0.08121123 -0.080993675 -0.1363209 0.024592763 0.28144518 -0.13309108 0.0001997202 -0.13974372 -0.15585506 0.090362616 0.053519186 -0.14569399 0.44050044 -0.34533545 0.06870806 -0.16886763 0.13035122 -0.092179224 -0.15420063 -0.13167839 -0.12256632 0.2130794 0.043694396 0.28989333 -0.066636324 -0.010511682 0.043572526 0.21899779 0.0073855594 -0.19563173 0.08902126 0.068826765 0.052065358 -0.15563178 -0.027661856 0.108997636 -0.13092205 -0.0004988503 -0.10626807 -0.025522474 0.26644605 -0.17580871 -0.14817715 0.20228945 -0.09051185 -0.17561416 0.12551355 -0.088700056 -0.07140263 0.16584082 0.16279195 0.025756584 0.10997253 0.029959679 0.059119657 0.26411122 -0.1258325 0.02587969 0.111730896 0.029903745 0.122121036 -0.094894625 0.015622121 0.01722444 -0.039714206 0.27464244 -0.06184227 0.14650495 -0.21378703 -0.27618608 -0.15075526 -0.07053305 0.07129664 0.059065 -0.07076964
9 -0.03606377 0.118316986 -0.06618112 0.119654186 -0.15296718 0.1537331 0.023735262 0.02630867 0.09530158 -0.07525723 0.0876028 -0.15201809 -0.08076249 -0.10091599 -0.076608986 0.1805181 0.030276988 -0.056073617 -0.09888237 -0.16484399 -0.07494455 -0.21064253 -0.0085870605 0.21119905 0.1245281 -0.033159602 0.041050315 0.09549007 -0.28715843 0.03590232 0.1264725 -0.034073777 -0.06810193 0.2884257 0.17930211 -0.39208114 -0.13525034 0.24077821 0.18758166 -0.026046779 0.022061134 0.35085255 -0.07693601 0.005138826 0.14850089 0.050042238 -0.2381896 -0.09933159 0.04764954 0.17883176 0.034759443 0.08253643 -0.07121778 -0.040833168 -0.004242392 -0.023548335 0.18603027 0.15898894 -0.05628998 -0.20490386 -0.002888469 -0.043456417 0.09718294 0.033244986 -0.16027737 0.35536468 -0.2044409 0.08330705 -0.1608991 0.05882788 -0.07736093 -0.098159604 -0.020697305 -0.19996811 0.0897186 0.009814171 0.23236103 0.03603083 0.10869312 -0.06294123 0.1662932 0.037405565 -0.04838816 0.029112216 0.22367837 0.0164552 -0.15174964 -0.07122325 0.10654662 -0.19499329 0.030262914 -0.007100151 -0.11441462 0.274426 -0.098380215 -0.13387069 0.23853238 0.029829813 -0.17308082 0.07522711 -0.044198684 -0.17389135 0.044944473 0.15144949 -0.061786108 0.027131379 0.11008456 0.03387912 0.19017364 0.13915963 -0.016641848 -0.017055636 -0.09287351 0.024898358 -0.08829058 -0.048320938 0.02022313 0.17640546 0.36432523 -0.055787366 0.21626782 -0.2209236 -0.17185333 -0.14213806 -0.09765284 -0.0083878115 -0.059363473 -0.15264861
74 -0.1706081 0.059150815 -0.0556636 0.22223501 -0.20883209 0.1323967 -0.07891853 0.00929146 0.07195934 -0.14258471 0.005296562 -0.15242243 -0.029181458 -0.08147051 0.019720035 0.17506121 -0.034534242 0.004360918 0.049211513 -0.1662286 -0.042123027 -0.1989305 -0.07321537 0.013526289 0.21206631 -0.092090786 0.008846164 -0.058737166 -0.14121759 0.033891317 0.083738394 -0.07650059 -0.19065802 0.21065374 0.014725388 -0.39846802 -0.040981237 0.28506872 0.09051503 0.16270378 -0.03071957 0.42820293 -0.14972466 -0.07128219 -0.026134701 -0.26944432 -0.30828774 -0.13764963 0.10573868 0.13895994 -0.069640554 0.018185377 0.031102045 -0.017351724 -0.055551402 -0.10710608 0.13370804 0.25697565 -0.15116592 -0.20708597 -0.038356062 -0.10881847 0.18181331 0.21857011 -0.19124849 0.34260753 -0.072992735 0.05064298 -0.09119445 0.075956926 -0.22905166 -0.23414469 -0.08432915 -0.20394245 0.02128553 0.06261955 0.13468084 -0.06111019 0.087400295 0.04656536 0.18623109 0.07561854 -0.0904042 0.07083824 0.08849153 -0.08368965 -0.11034045 -0.08224657 0.13157733 -0.18959418 0.03477734 -0.03708401 0.0055621346 0.21786435 -0.0271394 -0.1338664 0.22056523 -0.04228202 -0.10822032 0.02164786 -0.080663756 -0.25406733 0.15580295 0.1900573 -0.06898686 0.049819507 -0.01300399 0.04157394 0.30312008 -0.017680494 -0.05098633 0.24425358 0.034165103 0.07747297 -0.20701943 0.07631554 -0.10595395 0.040493242 0.25076288 -0.17147161 0.12785225 -0.18238167 -0.2972953 -0.016123364 -0.027824964 0.07088347 0.024111712 -0.12574239
7 -0.11927183 -0.06458326 -0.0834208 -0.023754688 -0.088255085 -0.0032011785 0.03318436 -0.008661263 -0.12104112 -0.05858042 -0.14505337 -0.21588482 -0.09662288 -0.111155175 0.030558126 0.22195862 -0.06938043 0.09531512 0.17544557 -0.16337915 -0.060825523 -0.122534394 -0.03585611 -0.036202885 0.09182115 0.07302809 0.010112807 -0.109861225 -0.1811449 0.07187258 0.010814592 0.012738491 -0.08010337 0.29750234 0.110768646 -0.3776214 -0.13682714 0.33498824 0.16917586 0.017093476 0.039606795 0.29768896 -0.089509994 0.0051159915 0.14415185 -0.15046614 -0.3236615 -0.09136363 -0.018127803 0.085337184 -0.16124004 0.004481183 -0.15982732 0.13428862 -0.032684367 -0.0037201184 0.08172046 0.29473224 -0.17203128 -0.08301625 0.01327341 0.04815557 0.12773772 0.10560467 -0.07097089 0.34914228 -0.2423108 -0.018822836 -0.20037569 0.17486823 -0.18599845 -0.2272801 -0.0005592685 -0.16618094 -0.043653294 -0.11209237 0.16078886 -0.074435756 0.08179144 0.033191793 0.23389572 -0.035651725 -0.13549954 0.080684796 0.069739915 0.07726797 -0.15139396 0.029671833 0.17418644 -0.01835082 0.06569128 -0.0663762 -0.047686305 0.16583808 -0.14329883 -0.21773471 0.23530196 0.019267228 -0.16927324 0.07283523 -0.10760141 0.00049827085 0.11011237 0.23518391 0.03837653 0.029538795 -0.0022174143 -0.050566092 0.19161798 0.12863596 0.10358629 0.14164303 0.01161969 0.13764459 -0.16383168 0.03284571 -0.04622415 0.07008912 0.25764003 -0.23755784 0.13060085 -0.16553469 -0.23204002 -0.10698957 -0.059183177 -0.014231101 0.020409556 -0.1663911
19 -0.018450812 -0.081911415 -0.02834713 -0.019309044 -0.157131 0.023173444 0.006473284 -0.04571846 0.09985498 -0.03367793 0.008341082 -0.17044352 -0.06812981 -0.10355647 -0.08244912 0.22576289 0.033955663 0.0542668 0.033481862 -0.2759286 -0.047519796 -0.10299653 -0.06493269 0.036249146 0.13629253 0.020998888 0.048476942 -0.038544476 -0.27904916 -0.036400646 0.14743167 0.08806686 -0.01352579 0.22116223 0.054349765 -0.46892646 -0.12161346 0.2527028 0.2546333 0.076876104 -0.097128026 0.25129265 -0.15181129 -0.051634636 0.0334593 -0.1747208 -0.43018854 -0.1227963 0.05203547 0.072331056 -0.011551575 -0.028557912 -0.18241939 0.06708262 -0.009174881 -0.037497297 0.048838582 0.20247403 -0.073030695 -0.22736216 0.06268345 -0.05518073 0.08113057 0.21509181 -0.16221556 0.32023472 -0.21022421 0.03313025 -0.15473135 0.09820288 -0.044972133 -0.1213554 -0.07178741 -0.17283556 0.043385223 0.010173884 0.23406763 -0.08980055 0.086858 -0.019677619 0.2120633 -0.1136578 -0.23561281 0.04435749 0.07788521 0.032634858 -0.12362785 -0.016688563 0.08116816 -0.07705662 0.17435743 -0.019308738 0.024649654 0.29507345 -0.1660535 0.022745721 0.1669827 0.096091986 -0.1172666 0.072583094 -0.062707454 -0.12862292 0.15712258 0.17608288 0.0016813541 0.01630272 0.16488463 -0.036883738 0.21405415 0.085076064 0.028772306 0.14532714 -0.063722454 0.057691306 -0.16896729 -0.054936383 -0.12900062 0.020811286 0.28526554 -0.18576767 0.1530882 -0.18240248 -0.2785711 -0.11658229 -0.05067918 -0.0071368567 -0.10928017 -0.16895193
21 -0.13282177 0.16753693 -0.033208292 0.08927462 -0.0602106 0.17661214 0.032805733 0.07525685 0.08443886 -0.06862483 -0.04440157 -0.080572344 -0.0982735 -0.088971555 0.015233046 0.30033156 -0.034159902 -0.14159383 0.029962502 -0.08331795 -0.07610183 -0.23908697 0.006652729 0.11066056 0.10613414 0.0144431265 0.09908431 0.23347484 -0.12296517 0.14517438 0.08034772 -0.06643229 -0.20189518 0.26973808 0.14411959 -0.24443603 -0.12127462 0.27510768 0.2581738 0.034793552 0.029182767 0.32166153 -0.12180177 -0.019902283 0.27000803 -0.04246672 -0.29403138 -0.25640666 0.07981273 0.29839924 0.15448785 -0.05883298 0.020749748 -0.023029413 -0.078774564 0.0939343 0.17402251 0.10091262 -0.019695595 0.023334118 0.020377874 -0.12563868 0.12536559 0.0033491421 -0.21552809 0.3575007 -0.3023538 0.11696512 -0.2029228 0.054418355 -0.1980756 -0.2448486 -0.030645587 -0.18442741 0.18853198 -0.08143582 0.16319817 0.029231735 -0.0046939794 -0.103328556 0.07808209 0.025423171 -0.21515259 0.07094204 0.1673006 0.044899072 -0.2030493 -0.056921184 0.1545261 -0.22892888 -0.15065233 -0.08823368 -0.14813662 0.24320304 0.022779856 -0.097903326 0.21377589 0.038713504 -0.24411994 -0.022730893 -0.025190014 -0.22311112 0.029292647 0.107261196 0.07577222 0.16741093 0.08115157 0.010880672 0.18429908 -0.0095432885 0.053035866 -0.018147 -0.13202374 -0.050908946 0.014968968 -0.16163835 -0.10918075 0.063310884 0.23941845 -0.02811823 0.09369673 -0.13951248 -0.2599456 -0.13959134 0.043278784 -0.062171277 -0.050849743 -0.1318344
1 0.027323471 0.09440154 -0.20067467 0.096981935 -0.077603996 0.09743735 0.017014638 -0.16092892 0.0973934 -0.08024002 0.040940877 -0.1946153 -0.10962695 -0.12093269 -0.0664482 0.21107681 0.15391716 -0.08952437 -0.11853946 -0.26943892 -0.056729995 -0.14603324 0.04655907 0.18848175 0.08210117 0.08592574 0.063972875 0.008135366 -0.31471947 0.0272393 0.1573939 -0.03186998 -0.12442077 0.38502938 0.049367525 -0.38327459 -0.16187988 0.2708483 0.3994081 0.10289247 -0.026423335 0.2964935 -0.09905947 -0.038821623 0.17111441 0.05712538 -0.2985935 -0.08414408 0.06201194 0.17579898 -0.05275618 0.01946602 -0.038016964 0.17265625 -0.10194186 0.1283859 0.049155045 0.25617582 -0.010303079 -0.2899552 -0.058699682 0.024149159 0.10577775 0.13093059 -0.10536464 0.3721483 -0.17069046 0.04771247 -0.13739258 0.073236935 -0.009022766 0.02395861 -0.021580918 -0.1650405 0.055980474 0.08923429 0.3102495 -0.0887467 0.18427175 -0.116854355 0.1526518 0.03294891 -0.2264801 0.046097346 0.2856085 0.09019681 -0.15866588 -0.059680562 0.24738567 -0.06838557 0.12309125 0.027507026 -0.18312636 0.22342427 -0.099182464 -0.117631346 0.25569177 0.12826864 -0.20779116 0.12045692 -0.05281011 -0.2129174 0.049571365 0.13620564 0.008727172 -0.018400077 0.17017154 0.033024963 0.21891485 0.05845845 0.11753005 0.04572625 -0.018441759 0.11866041 -0.12805936 0.0017106305 0.03327833 0.042725474 0.35825977 -0.016059795 0.24407648 -0.25017372 -0.16739541 -0.14535022 -0.10496043 0.037234165 -0.061734084 -0.13383816
27 0.02415068 0.09930456 0.059778478 0.043995954 -0.17063135 0.07382942 -0.07079876 -0.051942896 0.16081998 -0.03444321 0.080037974 -0.133009 -0.14625452 -0.12244541 -0.12988023 0.1958103 0.081549905 0.047823854 0.00037327068 -0.22214065 -0.04525551 -0.12925062 -0.05030944 0.1070795 0.08306473 0.0028221617 0.07610768 0.03293358 -0.21734469 -0.04087069 0.20760563 0.03297086 -0.012046803 0.22466145 0.09033834 -0.38216877 -0.15112585 0.26960757 0.15028468 0.14555672 -0.031279538 0.22300188 -0.10385851 -0.028819216 0.10325339 -0.08524719 -0.36719325 -0.118798 0.1012611 0.11845042 0.059970364 0.05414456 -0.08870492 0.04374371 0.07717081 -0.128305 0.061446182 0.19001192 -0.0049587814 -0.14427367 -0.067331314 -0.15862563 0.14810054 0.10724574 -0.15122695 0.4022795 -0.16062914 0.046654783 -0.1717769 0.13649194 0.02261454 -0.04809996 -0.023428066 -0.1794571 0.16832031 0.1203963 0.30598277 -0.14033836 0.16898188 -0.05727755 0.21364804 -0.009365879 -0.24753752 0.04571818 0.13212422 0.06025479 -0.16448718 0.026093464 0.07166818 -0.05868236 0.18017402 0.065425985 0.016517976 0.343716 -0.18508063 -0.01467824 0.09109649 0.053974047 -0.12827174 0.0010368146 -0.10741316 -0.07476263 0.088320285 0.17547637 0.011196211 0.014812464 0.18137822 0.058868498 0.16708279 0.11675588 0.033614684 0.09545341 -0.11215345 0.10020885 -0.12592538 -0.051376924 -0.04487866 -0.05684258 0.29393074 -0.06841584 0.21507616 -0.16899306 -0.21147875 -0.20399804 -0.13187693 -0.00408823 -0.023002991 -0.1826796
3 -0.077928245 0.1151641 -0.013214782 0.09338026 -0.22487234 0.06625323 -0.0150867095 -0.0039746794 0.012257075 -0.076630265 0.13871671 -0.19586219 -0.037519727 -0.08049625 0.03823146 0.17138132 0.16059968 0.0062032016 0.02302154 -0.12576215 -0.086906984 -0.18717338 -0.0034701393 0.10208652 0.12690695 0.023708476 -0.011445987 -0.033906728 -0.253525 0.036788628 0.1495118 -0.038878676 -0.087214895 0.24821532 -0.011564633 -0.43667305 -0.17698419 0.23996438 0.056318495 0.15659572 -0.04398367 0.3137824 -0.18274955 -0.031665154 0.11633544 -0.033673942 -0.3670932 -0.10440803 0.075467385 0.09103151 -0.10428217 0.0041898815 0.03370229 0.049250644 -0.040880535 -0.07877879 0.16268696 0.2878576 -0.063353755 -0.14131257 -0.09521084 -0.029002981 0.15049078 0.100167826 -0.07786046 0.41988578 -0.13076544 0.055700433 -0.082079716 0.09503645 -0.051144235 -0.065291435 0.0061880886 -0.17632075 0.00929331 0.14404754 0.30696046 -0.06382828 0.21137442 -0.052161276 0.15887475 0.058787063 -0.20132947 0.06671959 0.17730074 0.09751961 -0.06721183 -0.12392341 0.15681423 -0.04587927 0.14584415 0.13090411 -0.062346507 0.25153533 -0.13632211 -0.088483155 0.23056854 0.038134996 -0.119546115 0.093959324 -0.05543851 -0.06763688 0.10450115 0.22714096 -0.056072738 0.041365966 0.14565465 0.038846992 0.23932979 0.114121735 -0.0128906965 0.11913222 -0.00032805197 0.14848042 -0.08998262 0.0528483 0.04162235 0.021612793 0.29169297 0.01497129 0.24144682 -0.21336943 -0.07698798 -0.07712198 -0.15091191 0.0076057734 0.05522927 -0.23088017
55 -0.02831927 0.1725011 0.023643825 0.06961261 -0.13934793 0.039396875 -0.07308785 -0.049685072 0.17626898 -0.08587755 0.0315835 -0.14853187 -0.1732356 -0.17720006 -0.14916462 0.19006051 0.062624395 -0.006512498 0.0015901162 -0.21139863 -0.027135774 -0.1416927 0.008206695 0.08995427 0.10034024 0.018005716 -0.019806782 -0.014549455 -0.21123531 0.08442216 0.13500354 -0.004448819 -0.08086735 0.25436908 0.04371632 -0.37278625 -0.111267366 0.3258384 0.2109029 0.060291838 -0.014609434 0.24686337 -0.061742887 -0.095637724 0.0896088 -0.12375069 -0.22059402 -0.056303162 0.017971558 0.1645263 0.07171923 0.02930662 -0.12975116 -0.0070255315 -0.09693127 -0.03822715 0.037697896 0.13998361 -0.078053944 -0.24288699 0.021113314 -0.14934082 0.18304764 0.20644017 -0.10216734 0.34686014 -0.13787898 0.09267354 -0.17800897 0.1767413 -0.10967451 -0.034654085 -0.011590324 -0.14511491 0.11985363 0.05812243 0.2479941 -0.14165954 0.13847536 -0.038299423 0.2737394 -0.09093572 -0.12717588 0.03682338 0.11334713 0.12514569 -0.12137729 0.04160803 0.19708297 -0.055149768 0.02489521 -0.05137511 -0.08570689 0.2600016 -0.12994707 -0.0673922 0.12095652 0.121008135 -0.19167714 -0.015792098 -0.082036376 -0.041512538 0.08268777 0.21121077 0.081510924 -0.054180913 0.14748827 -0.117675096 0.10015843 0.07699775 -0.06926013 0.14289586 -0.0045029586 -0.043402214 -0.11274743 -0.09673017 -0.05346773 0.049630854 0.2410246 -0.17780088 0.09759983 -0.17689557 -0.22052018 -0.07654985 -0.053236995 0.07487427 -0.0041318727 -0.19356538
54 -0.042092107 0.04477986 -0.08340742 0.067895934 -0.19162734 -0.011725236 0.041752543 0.07305613 0.191808 -0.1576192 -0.032322243 -0.16371636 -0.09035386 -0.06744042 -0.15001652 0.15281488 0.075413905 0.048112933 -0.05174711 -0.25261116 -0.07820438 -0.19687562 0.016798284 0.05113268 0.0929589 0.06624553 0.012589612 0.09975278 -0.22073202 0.12395023 0.16852497 0.036305945 0.029137101 0.2482818 0.078725785 -0.42296493 -0.15361997 0.262983 0.22154818 0.0006887602 -0.04055134 0.41265452 -0.13769826 -0.13704057 0.18592739 -0.20263238 -0.33922744 -0.10971169 0.044371646 0.046148486 -0.01338104 0.10054105 -0.102698475 -0.013044482 -2.2745488e-05 -0.13254446 0.19768776 0.10761699 0.03857484 -0.18161793 0.08184622 -0.05948206 0.22827712 0.16142878 -0.18984212 0.30633256 -0.19415486 0.010893761 -0.05431141 0.039392807 -0.08202095 -0.11662249 -0.039184112 -0.20588893 0.12221749 -0.0046188566 0.25452787 -0.1227454 0.040854122 -0.1365123 0.18553714 0.0048763193 -0.19052744 -0.02371557 0.19178133 0.066348135 -0.08725231 -0.050682116 0.15963413 -0.1610198 0.119776815 0.02519627 -0.0059866165 0.2813149 -0.0783215 0.03481713 0.18169689 0.016786 -0.10179135 -0.014230432 -0.12266775 -0.12079652 0.040663313 0.22370575 -0.032068767 0.023014933 0.10339757 -0.04349115 0.20614631 0.14587961 0.0024512396 0.115254804 -0.114129886 0.02355918 -0.08801523 -0.029688654 -0.07872099 0.188569 0.26525363 -0.0997131 0.17497377 -0.2044296 -0.08958102 -0.032649107 -0.07762021 0.075945064 -0.065041974 -0.22648254
115 0.051867843 0.18326007 -0.008322372 0.029129827 -0.019349443 -0.060049877 -0.039887484 -0.12271723 0.11406883 -0.0097100325 0.082061395 -0.11890181 -0.15695359 -0.18532531 -0.090441845 0.16801463 0.13465042 -0.022812335 0.034042124 -0.14577127 0.015082951 -0.042711772 0.056938782 0.09354582 0.0054746387 0.17705153 0.0338079 -0.017273873 -0.13412116 0.13788843 0.106920056 -0.0047059446 -0.18456475 0.26098356 -0.110071786 -0.32673076 -0.13109691 0.31175336 0.2846212 0.13803105 -0.011580943 0.1758347 -0.18817861 -0.10210599 0.085919335 -0.14762798 -0.19679411 -0.05978042 -0.007855754 0.16396078 0.036888197 -0.055846278 -0.06867289 0.0060993712 -0.20968185 0.10074085 -0.00065011 0.14938107 -0.047284752 -0.279157 -0.020625213 -0.13333933 0.15361279 0.20882995 -0.14306946 0.36984226 -0.14515364 0.10044396 -0.10741063 0.17629579 -0.040939853 0.039327085 -0.09867095 -0.16044539 0.18273197 0.17175834 0.2623429 -0.15291196 0.2169438 -0.061131608 0.23306958 -0.1590326 -0.34825516 0.0123073645 0.14990735 0.18516141 -0.15136133 0.05838037 0.281033 -0.026837494 0.03321743 -0.02836243 -0.13656329 0.2157314 -0.10233608 -0.022748824 0.1593508 0.20782308 -0.16689564 -0.026116423 -0.0852451 -0.029405814 0.0435104 0.2145924 0.14509901 -0.090586595 0.15251148 -0.1761679 0.072969966 0.07467184 -0.10344428 0.13785043 0.06470932 -0.10125291 -0.02750985 -0.0973857 -0.017697835 0.0063194446 0.15583712 -0.114109285 0.029202286 -0.16269527 -0.2030534 -0.11825874 -0.02321351 0.1712476 -0.005709206 -0.20308703
184 -0.0033673854 0.005967225 0.04069532 -0.006206147 -0.058664206 0.08452283 -0.060626537 -0.089472614 0.065684244 -0.06198491 0.04036985 -0.11069636 -0.04023443 -0.083525024 -0.09380195 0.2555135 0.071949 0.03326394 0.014603142 -0.26387244 -0.03212675 -0.16702494 0.031206546 0.034726683 0.14728785 -0.010050231 0.08227475 -0.06823884 -0.21217124 0.08883587 0.051601294 -0.029123483 -0.08789874 0.27660912 -0.029758096 -0.40227467 -0.07548947 0.22438022 0.23113637 0.1581411 -0.070001855 0.2786817 -0.16962807 -0.05271924 0.07744966 -0.19683787 -0.2976781 -0.0588008 0.05099082 0.1484004 0.054914307 0.09933797 -0.11412387 0.081672326 -0.07287475 -0.067140475 0.046854388 0.27214184 -0.056711566 -0.15170917 -0.013574297 -0.03100592 0.15216687 0.20153974 -0.12990609 0.30827323 -0.22812366 0.08221895 -0.12977569 0.20615259 -0.0043602316 -0.14277841 -0.08068086 -0.2003625 0.12709764 0.06597427 0.16974741 -0.07028568 0.03881139 0.040614054 0.09943884 -0.04713252 -0.2641356 0.05291166 0.11120001 0.014519518 -0.16353282 -0.020519562 0.17831118 -0.08851098 0.058885567 -0.06576183 0.03033074 0.16445851 -0.042237088 -0.018242542 0.21772763 0.06851491 -0.08405664 -0.018229038 -0.08258848 -0.14543864 0.09707192 0.12720867 -0.0754061 -0.0039260043 0.08997004 -0.010178392 0.24925652 -0.013072395 -0.011846443 0.14413272 -0.0007256659 0.06367465 -0.11905793 -0.078611 -0.09657131 -0.020643767 0.23709005 -0.13703656 0.14472495 -0.14096734 -0.21241736 -0.114034675 -0.05129638 0.11647079 0.026910495 -0.11826945
28 -0.16600004 0.22594611 0.07201024 0.22481324 -0.084392644 0.040835842 0.0025841363 0.017467871 -0.04340407 -0.058897026 0.1728817 -0.14553446 -0.1364411 -0.09422717 -0.011861488 0.16232382 0.050705854 -0.055889018 0.093725085 -0.05005158 0.105001904 -0.040547796 0.024567742 0.11494627 0.25994995 0.03407032 0.12329498 -0.019386794 -0.22775698 0.13935435 0.24829093 -0.113137536 -0.1431589 0.2364959 -0.0015957432 -0.30485398 -0.07073297 0.43166134 0.10293073 0.1699373 -0.10910848 0.21575214 -0.15847565 -0.06988907 -0.032627065 -0.04995325 -0.2702794 -0.13380642 0.04517258 0.18122645 0.12787218 -0.10064925 0.03307815 0.07876848 -0.11212613 -0.06776125 0.085491806 0.094220504 -0.02697563 -0.00032779132 -0.16142656 -0.18139383 0.20659675 0.13630077 -0.19967084 0.38327298 -0.07977956 0.048373118 -0.25610077 0.078702286 -0.17508127 -0.090280056 0.058152113 -0.14305776 0.10476506 0.12322896 0.27497616 0.010221925 0.21299917 -0.06302996 0.2464342 -0.072064966 -0.31013316 0.20089404 0.1505136 0.17538206 -0.14951389 -0.053823102 0.22693588 -0.03805434 0.009004365 0.064332776 -0.11703714 0.23260663 -0.062365167 -0.06468113 0.19773816 -0.05280596 -0.1704804 -0.033045005 -0.07608493 0.0143371625 0.002732141 0.19955912 0.06328666 0.06952479 -0.022713097 -0.06509467 0.27572384 -0.0029694804 -0.04595018 0.10701909 0.036449585 -0.037836883 0.020651681 -0.0939956 0.10907528 -0.07573086 0.16894738 -0.038671218 0.025960108 -0.19493082 -0.13362984 -0.1124007 -0.079632044 0.026195033 0.071430035 -0.19823888
164 -0.31264895 0.014935727 -0.003433428 -0.0023082008 -0.18466544 0.027432913 -0.015088979 0.15870546 0.22427714 0.025874484 -0.11657106 -0.16232194 -0.21643105 -0.14255834 -0.050344083 0.078205116 -0.042219665 -0.0790181 0.11713942 -0.15676971 0.037572127 -0.24134608 -0.016386887 0.13410263 0.24446745 0.024116645 -0.029397355 0.06673724 -0.32841355 -0.023045423 0.1906199 0.10633284 -0.18255271 0.30815843 0.046027493 -0.33213934 -0.1917894 0.4416748 0.2559038 -0.02058209 -0.045310695 0.33008245 0.014549391 -0.0023831557 0.05599105 -0.071583875 -0.24790193 -0.1202892 0.0059533333 -0.013930429 0.021852823 -0.07999601 -0.043877147 0.04704112 0.031322878 -0.102612935 0.030481024 0.008644164 -0.20243953 -0.21422203 0.056835614 0.021757204 0.020376232 0.17928845 -0.24359956 0.26158676 -0.07177298 0.024834089 -0.2888609 0.17589206 -0.26189438 -0.03436712 0.034081336 -0.025746172 0.014001506 -0.022231583 0.19381744 -0.16853915 0.1667184 -0.0061721024 0.24212149 -0.07432719 -0.023548154 0.11588346 0.054336496 0.06045614 -0.18683185 0.027481299 0.11275028 -0.07142577 0.06508486 0.015573403 -0.19817767 0.20073652 -0.11708194 -0.14439303 0.08843986 -0.038904212 -0.28763112 0.19870687 -0.11025737 -0.20444351 0.18644556 0.09833232 0.1315364 0.021009287 0.19827765 -0.14757612 0.1196769 -0.019995065 0.08271596 0.020142628 0.054895923 -0.024101853 -0.1850162 0.002176908 -0.1138287 -0.014805773 0.31520236 -0.2285322 0.012504915 -0.04602467 -0.3588838 0.042813573 -0.16205707 -0.08512044 -0.0828909 -0.19291082
32 0.09359147 0.07084248 -0.035393365 -0.036909036 -0.17351423 0.11632819 -0.06672873 -0.020220421 0.11268153 -0.015071674 -0.00463623 -0.118646055 -0.017560015 -0.08411517 -0.12649707 0.11012402 -0.013100927 0.050417013 -0.08962175 -0.16544649 -0.116457306 -0.13563412 -0.029312834 0.14339593 0.048240617 0.05711369 0.044408534 0.03951124 -0.18378215 -0.022891993 0.1568257 0.06546343 0.008757198 0.237222 0.050621934 -0.35966206 -0.21473196 0.3186306 0.22089396 -0.0074262717 0.11085295 0.2691838 -0.16561763 -0.17011994 0.20085396 -0.18584418 -0.32379764 -0.12997253 -0.03657197 0.14586228 -0.024670202 0.054691546 -0.005194306 0.09327239 -0.06274695 0.017231803 -0.0024083646 0.31168866 -0.0053652124 -0.26386368 -0.115593545 -0.08526091 0.20748717 0.09235764 -0.10155133 0.33551812 -0.18318367 0.015450036 -0.1661516 0.10101085 -0.02136377 0.030238813 -0.13933685 -0.18189062 0.3024179 0.036590897 0.26789314 -0.037612468 0.13918829 -0.003907365 0.137844 0.00085251254 -0.14445657 0.07256541 0.26729575 0.007874089 -0.11445553 0.09071264 0.16423565 -0.0698366 0.155216 -0.03352182 0.08606749 0.3055766 -0.12811686 -0.18109098 0.17504296 0.1446889 -0.19493572 0.15596205 -0.11284569 -0.14558952 0.16767007 0.17996244 -0.09399387 -0.059257835 0.10186794 -0.036954 0.11921239 0.05636037 -0.034672793 0.044022772 -0.036477167 0.13392334 0.020506574 -0.048392322 -0.08924181 0.12683156 0.27757293 -0.13465577 0.25440887 -0.36310205 -0.17332123 -0.22852895 -0.1255437 0.062128503 0.015146737 -0.12687956
20 -0.11467366 -0.08343395 -0.12691636 0.041352943 -0.21932097 -0.042226557 0.018572448 0.016603641 0.10859557 -0.050840285 -0.026416937 -0.13789152 -0.038361147 -0.06556161 -0.06691707 0.085344516 0.027409459 0.13609621 0.03409327 -0.2002443 0.020163186 -0.17547795 -0.012572793 0.03200204 0.15935634 0.048685763 0.054196693 0.07803079 -0.25375015 0.042330373 0.20468585 0.10289161 0.001704121 0.17124854 0.012884182 -0.45783466 -0.19935995 0.35088027 0.1994848 -0.0004700138 -0.011476151 0.40078056 -0.16174467 -0.12293785 0.13079324 -0.28049368 -0.4134458 -0.14791279 -0.026992414 -0.009523634 -0.027951632 -0.0070880605 -0.08252143 0.024771826 -0.013442611 -0.18152368 0.15294811 0.13590212 0.0014168947 -0.24802278 -0.0010873587 -0.003852683 0.1943436 0.24506716 -0.20526804 0.28525126 -0.17017098 -0.015237392 -0.10968875 0.038010973 -0.1378654 -0.113194145 -0.090300046 -0.19206576 0.12281963 0.071708076 0.23170727 -0.074375175 0.099529155 -0.032767147 0.15467212 -0.021647763 -0.12849323 0.088501334 0.15647867 0.0020610024 -0.09976821 0.0017669997 0.106946394 -0.13367873 0.14967465 0.03818743 0.045191016 0.27824485 -0.08827497 -0.041418437 0.16291755 0.019760793 -0.03669487 0.08287527 -0.09310719 -0.10086946 0.13642336 0.18779656 -0.061841507 0.030189818 0.052941017 -0.030198356 0.17744672 0.07635066 -0.010073888 0.12296586 -0.076212265 -0.021122325 -0.09981033 -0.004541542 -0.07302025 0.11585898 0.2637263 -0.23000602 0.11229426 -0.17407463 -0.18319933 -0.0634006 -0.14801864 -0.012603979 -0.09088549 -0.23103403
23 -0.028423388 0.050180987 -0.13987778 0.10713293 -0.05885918 -0.12572537 -0.02794561 -0.070550136 0.0033890703 -0.06967324 0.020630892 -0.13527419 -0.15789829 -0.1483033 -0.10615396 0.10799289 0.030598734 0.06411095 0.07197016 -0.24864711 0.06099899 -0.10525877 0.089568876 0.01862705 0.09667172 0.11211198 0.09564049 -0.02303009 -0.18696184 0.084130675 0.11441896 0.0023128241 -0.07614172 0.33195883 0.017691016 -0.35472935 -0.08095682 0.36979797 0.33973375 0.03689865 -0.17092797 0.20694837 -0.11068972 -0.06297627 0.054608252 -0.12464523 -0.19973704 -0.06222625 -0.013578608 0.16766849 -0.004869312 -0.1123593 -0.073776275 0.036986485 0.015161958 -0.031022899 0.022123057 0.17526504 -0.08160457 -0.15389389 0.007995106 -0.10048838 0.13718256 0.15950859 -0.16920751 0.3712642 -0.13352123 -0.00278362 -0.105326355 0.14357056 -0.06952941 -0.15979117 -0.0977956 -0.17412001 0.06574838 0.13821626 0.20716015 -0.097159356 0.10966573 -0.03427222 0.2225169 -0.14229617 -0.29314503 0.017833378 0.15689664 0.068167195 -0.11428907 0.03601677 0.2015961 -0.10552541 0.015812417 -0.058611315 -0.08158788 0.11541274 -0.1933354 -0.06612838 0.25651005 0.083331145 -0.10799577 0.030519957 -0.13188916 -0.083006665 0.030023683 0.21120758 0.07280768 0.03462172 0.097542316 -0.085616656 0.21740364 0.061354164 0.04776992 0.13169456 0.026749559 -0.040825326 -0.12689298 -0.0062325923 0.103495836 -0.010504543 0.17159547 -0.18020222 0.07264692 -0.2179858 -0.14285871 -0.14819564 0.009208796 0.058632705 -0.006003615 -0.13599235
51 0.05114209 0.049692325 -0.10045407 0.05950792 -0.23099859 0.092371166 0.04721508 0.07248768 -0.062282298 -0.012456433 0.045290187 -0.15922207 0.015147566 0.011758449 0.029003257 0.14147268 0.035381183 -0.03450596 -0.07393 -0.07646216 -0.13514441 -0.08961732 -0.114555426 0.1194745 0.15229276 -0.03441696 0.055791374 -0.00024349327 -0.29277858 0.043992724 0.18306033 0.05651212 0.059996758 0.17880009 0.2511293 -0.40862405 -0.13869241 0.21978691 0.097970635 -0.033936642 0.11626447 0.26434082 -0.14635089 -0.03619494 0.07587092 -0.008147144 -0.31818426 -0.08602403 -0.043475058 0.17297956 0.05031184 0.11809909 -0.20408712 -0.03703634 -0.12658738 -0.06371232 0.17668681 0.26530084 0.120173804 -0.20498508 -0.0574124 -0.021307744 0.20693527 0.09999589 -0.21890426 0.22918431 -0.15239175 -0.09146352 -0.24227919 0.0329873 -0.13921615 -0.041999847 -0.02711595 -0.20207529 0.120436914 -0.03774248 0.22738722 0.06238049 0.18601568 -0.030975109 0.10542288 -0.043960318 0.021012101 0.0446277 0.22003396 0.016033286 -0.24577728 0.04871675 0.0822652 -0.16655283 0.015517493 0.013936923 0.055968173 0.32311806 -0.056198157 -0.25242767 0.29313073 0.10759269 -0.18155512 -0.04621523 -0.014836521 -0.08963807 0.03236223 0.24736813 -0.055083487 -0.020707464 0.010083904 -0.08248802 0.04952278 0.27942958 0.0378612 -0.00019033987 -0.11980944 0.104453094 -0.02637707 -0.06948194 -0.117062345 0.21040924 0.31691003 -0.077939585 0.1866438 -0.33006775 -0.15772033 -0.21116339 -0.037707053 0.0032118799 0.052427035 -0.11278831
16 -0.042694446 0.28805226 -0.011689217 0.19964455 -0.109588906 -0.047110476 -0.06415288 -0.12172352 0.1439523 -0.06376509 0.14161965 -0.092731856 -0.122389734 -0.18620008 -0.10567251 0.08766096 0.04319286 -0.014456 0.016094476 -0.07097951 0.09700182 -0.048836958 0.17161927 0.21942236 0.066281915 0.1766601 0.035524257 0.05195308 -0.15719886 0.15262128 0.20450039 -0.06871988 -0.18572785 0.19701344 -0.16497149 -0.34670174 -0.16148351 0.42680532 0.1872101 0.07304025 -0.037877824 0.17454767 -0.09970452 -0.12692733 0.055934735 -0.14708436 -0.14927737 -0.081645936 0.046975087 0.19208655 0.06279869 -0.13660635 0.12938844 -0.07023065 -0.22694203 0.02630922 0.033148173 0.08311093 -0.0684547 -0.20660637 -0.18766728 -0.12938818 0.14941794 0.17826287 -0.12679762 0.40268272 -0.18030015 0.14174786 -0.21104299 0.1404275 -0.113515794 0.1768784 -0.04903899 -0.12806036 0.27547938 0.2922413 0.3244552 -0.048439454 0.20741318 -0.065574266 0.24279118 -0.11008633 -0.19498561 0.13439186 0.17424518 0.25692552 -0.10239062 0.044231467 0.30754006 -0.04369066 0.007486065 0.007884383 -0.24195194 0.20827088 -0.10324545 -0.047979746 0.16230848 0.123061165 -0.12140838 0.17689237 -0.06990549 0.007900903 0.07547333 0.17808194 0.10007324 -0.04142417 0.095277645 -0.17173758 0.10072722 -0.12912902 -0.12621781 0.07541648 0.15917507 -0.14111897 0.10417976 -0.07036933 0.21146894 0.04800091 0.16601226 -0.11618504 -0.0029821903 -0.15519127 -0.13429007 -0.10545636 -0.17314698 0.1529105 -0.03243873 -0.19932967
104 -0.067689516 0.014541832 0.082302295 0.09935059 -0.14878729 -0.026332429 -0.12152084 -0.0041884016 -0.022855233 -0.091873854 -0.07823656 -0.17610845 -0.022938188 -0.07262359 -0.055100713 0.21495576 0.011467463 -0.067743175 0.12857427 -0.07723181 0.02679112 -0.010181194 -0.028991666 0.059896182 0.11513483 0.03287306 -0.051550254 -0.0977625 -0.033900842 0.14026712 -0.031166147 -0.057479117 -0.23256919 0.098953865 -0.025811927 -0.3526065 -0.015572225 0.2736104 0.18418631 0.12212474 0.010434771 0.13536826 -0.15368345 0.024707528 -0.058596246 -0.23659636 -0.2023592 0.0035566771 0.0508063 0.1532882 -0.08127706 -0.059271257 -0.08404743 0.027246764 -0.19226281 0.046392813 0.1245691 0.22573598 -0.17576608 -0.17814709 0.076026954 0.026870888 0.018966774 0.29592308 -0.09788754 0.3643418 -0.19444042 0.15251172 -0.23057476 0.16735609 -0.099710524 -0.070960976 -0.1366209 -0.20553043 0.1153 -0.043044627 0.19134071 -0.10032675 0.13406011 0.06552291 0.2432997 -0.16169213 -0.13398701 0.09036557 -0.057867587 0.13032395 -0.18719135 -0.023481045 0.20161308 -0.060144033 -0.006722183 -0.10531735 -0.080769725 0.25811177 -0.09372275 -0.14172253 0.2296017 0.10234363 -0.14410405 -0.023033157 -0.037463963 -0.0003287225 0.12970604 0.28300074 0.101896405 -0.09459312 -0.030770801 -0.14539173 0.17672959 -0.04228294 -0.057150964 0.26120555 0.13858664 0.04898346 -0.11109764 -0.051533617 -0.06918073 0.19496569 0.17794657 -0.18509537 -0.0020737161 -0.12324006 -0.35111693 -0.07434756 -0.07271203 0.3034209 0.0071765976 -0.13508187
105 -0.07303725 0.07576031 -0.12701987 0.1455049 -0.1464107 0.08167158 -0.06591769 0.08051074 -0.008597428 -0.108120695 0.0012258284 -0.12330865 -0.013546568 -0.055687264 0.101580605 0.0879423 -0.14689052 -0.015097999 0.016099462 -0.10667864 -0.075001806 -0.19329302 0.10565774 0.0004422198 0.11528482 0.04071245 -0.0104574645 0.04393704 -0.022315389 0.11465807 -0.018886695 -0.05143623 -0.15312108 0.17430314 0.08134081 -0.339007 -0.099724144 0.39810607 0.053233117 -0.079466954 0.057728868 0.32545224 -0.08569281 0.028204568 0.10685576 -0.16175526 -0.18960205 -0.07852662 0.0330145 0.270931 -0.0770851 -0.004733308 -0.080125965 -0.047451 -0.1229211 -0.12901883 0.07758838 0.23939353 -0.08973964 -0.04912512 -0.105052084 -0.12612584 0.1918057 0.040371504 -0.19692357 0.3722075 -0.26068196 0.023116535 -0.09340739 0.1476797 -0.25144848 -0.1623206 -0.14077345 -0.14816754 0.2312641 0.06378696 0.19331934 -0.024736796 -0.009782555 0.06378208 0.19900432 0.00857561 -0.07540223 0.06280786 0.16970193 -0.012980787 -0.103029035 0.049268655 0.11172891 -0.2146721 -0.1396208 -0.11646822 -0.04208432 0.15138397 -0.12780371 -0.23779505 0.26298994 -0.053484287 -0.20649861 0.06780178 -0.12986319 -0.1124135 0.070080705 0.23840891 0.02575958 0.0518044 -0.033557687 -0.059567314 0.18956839 -0.010763578 -0.015642432 0.08892844 0.010492918 0.00045215277 -0.07457955 0.02737134 0.07000295 0.114620835 0.25801706 -0.19537616 0.105877444 -0.28294992 -0.147928 -0.08964662 0.012277757 0.080527425 0.05650911 -0.072792985
121 0.05913065 0.20634335 -0.02195022 0.15484253 -0.06725822 0.06440801 -0.09295698 -0.07818709 0.19584402 -0.13041723 -0.0045895795 -0.10479471 -0.012109023 -0.067304246 -0.21032739 0.25441518 0.09231755 -0.038696393 -0.08725062 -0.23569077 -0.044006128 -0.028232483 -0.037418462 0.014178656 0.028851375 0.03581209 0.10316311 -0.04033361 -0.14205466 0.07568933 0.06619164 -0.14384845 -0.105352834 0.30731994 0.07228397 -0.34318742 0.023870092 0.18857865 0.19147705 0.0110422 0.021258257 0.38195118 -0.09797532 -0.08524291 0.02334857 -0.18225415 -0.20371673 -0.11611009 0.10654118 0.19432877 0.054443676 0.15229078 -0.17172763 0.01395556 -0.090962574 0.035888895 0.043357726 0.25606886 -0.016697 -0.20783238 -0.078831844 -0.14680788 0.26574066 0.13605215 -0.18431489 0.32885116 -0.21583539 0.087601624 -0.10357841 0.046669517 -0.11051287 -0.053990126 -0.068947844 -0.24003494 0.21295266 0.050346427 0.22640625 -0.09793147 0.034971863 -0.009285636 0.18209033 0.028303366 -0.24246721 -0.08549323 0.25078803 0.06487115 -0.16600177 0.027513059 0.24035686 -0.10650824 0.054331824 -0.01593204 0.0061969003 0.25149235 -0.08885055 -0.042993482 0.18384929 0.08046662 -0.16353239 -0.07072094 -0.1548645 -0.25049156 0.032093853 0.19989713 -0.0008833116 0.020720188 0.033548623 -0.02759957 0.26393545 0.065636724 -0.115230575 0.08599791 0.008793547 -0.0075454884 -0.09082047 -0.012861946 -0.084506206 0.076676 0.2618041 -0.07952877 0.1325476 -0.2741824 -0.24780798 -0.10926036 0.015430825 0.20265165 0.016909499 -0.0807539
15 -0.04093505 0.0936517 0.018331783 0.13213319 -0.15698572 -0.018461391 -0.06994833 0.046010375 0.065173544 -0.15612566 0.08181734 -0.23876168 -0.15037595 -0.199765 -0.03041817 0.07672096 -0.040450156 0.06715585 0.11611553 -0.121115506 -0.07079337 -0.21872966 0.2129121 0.09501238 0.052013427 0.095508195 -0.018282074 -0.027744887 -0.15619017 0.024689099 0.11483909 -0.12582472 -0.11012729 0.26808456 -0.01177268 -0.3313326 -0.11479964 0.32487857 0.13768844 0.15744689 -0.10406422 0.12623444 -0.16572578 0.020656785 0.018082196 -0.10904432 -0.20607556 -0.057682116 0.09365978 0.22908007 -0.061659582 -0.006175776 0.06179366 -0.0738651 -0.020947402 -0.15008785 -0.013397601 0.2595817 -0.10256792 -0.11680104 -0.10810995 -0.21919937 0.19516334 0.042490285 -0.20556635 0.46012005 -0.058122862 -0.035500586 -0.08999457 0.18643783 -0.1767877 -0.043350883 -0.09123542 -0.036899228 0.13362928 0.13593072 0.29021996 -0.22129253 0.1142198 0.038971897 0.25329545 -0.037192885 -0.3186869 0.07148079 0.14517044 0.11553222 -0.054942615 0.005695043 0.20022683 -0.062396422 -0.02668094 -0.048269846 -0.047319956 0.18376322 -0.103178374 -0.02596168 0.20984273 -0.00872462 -0.24484602 0.042616893 -0.11919155 -0.08043386 0.06128381 0.21654308 0.081392065 0.04474088 0.09586656 -0.10438066 0.11990904 -0.0047008446 0.026197927 0.08328924 0.115453064 0.012546349 -0.055134322 0.02328053 0.073090754 -0.08224352 0.16668692 0.002731272 0.04184463 -0.19453298 -0.09742468 -0.11818983 0.026768986 0.054066997 0.038375344 -0.15266989
106 -0.096589945 0.036418576 -0.02250109 -0.029207725 -0.11894416 0.022234948 0.0077263764 0.0604659 0.07242559 -0.039284267 0.0026599553 -0.17920372 -0.07050083 -0.03598349 0.014995108 0.20297897 0.09042105 -0.036981415 0.00516608 -0.18542024 -0.070947826 -0.19679299 -0.006328984 0.11603274 0.116669156 0.054875124 0.043846972 0.040032156 -0.29823488 0.04383111 0.14563295 0.015280406 -0.10488058 0.2076339 -0.025539083 -0.37887734 -0.15947211 0.26040488 0.22045462 0.088373475 -0.021168344 0.27752894 -0.17086501 -0.03543174 0.06785849 -0.1258085 -0.3719985 -0.0939266 0.033876423 0.029561086 -0.05176428 0.016381055 -0.10528549 0.05780382 -0.051662482 -0.04286279 0.14890595 0.20108797 -0.031856686 -0.20406955 0.014673117 0.02535549 0.0662811 0.14619043 -0.17518659 0.301785 -0.15590802 0.0017112839 -0.17444193 0.07821146 -0.08522398 -0.0480576 -0.009464548 -0.12800613 0.038480245 -0.019983696 0.23257674 -0.112178035 0.12216625 -0.04765314 0.12325869 -0.045073062 -0.20586973 0.058524884 0.11927719 0.053995848 -0.16751352 -0.056721002 0.12150418 -0.12172092 0.13698061 0.007117508 -0.05970259 0.2716061 -0.06005444 -0.020308929 0.21361156 0.010632613 -0.20607042 0.11314105 -0.020596081 -0.14271027 0.14667764 0.16986851 -0.014175822 0.028517697 0.11074759 -0.043872844 0.14836387 0.050055973 0.06807161 0.11209594 0.011066486 0.08884226 -0.090625346 -0.041274138 -0.124543995 0.09434501 0.2729285 -0.08417192 0.12478482 -0.17120628 -0.23824841 -0.07940304 -0.096545435 0.009927625 -0.09578214 -0.19089441
61 0.055445716 0.17934963 0.08379365 0.13343528 -0.008392636 0.09845352 -0.076146506 -0.20468391 0.16575353 -0.05392499 0.026284253 -0.07739612 -0.16024001 -0.12912968 -0.15652432 0.23158814 0.090011686 -0.067809984 -0.029705318 -0.2673817 0.025114108 -0.10859705 6.9296046e-05 0.15778744 0.086058356 0.029536976 0.028041402 -0.025781326 -0.1487839 0.099758595 0.09046692 -0.048692714 -0.18035354 0.30172747 0.005410146 -0.42350417 -0.0100763505 0.3352032 0.2446938 0.1523943 -0.05355927 0.26615524 -0.070477135 -0.06391667 0.061687175 -0.14538208 -0.2548867 -0.0031131194 0.105938934 0.22593606 0.07789062 0.05707538 -0.119105496 0.05122405 -0.08357731 0.067048006 0.024488622 0.19823189 -0.12402991 -0.2332536 -0.060093317 -0.13025409 0.10677962 0.21675852 -0.0730799 0.3856861 -0.20679064 0.13191955 -0.20573047 0.21832941 -0.015210147 -0.047475584 -0.011354066 -0.19655941 0.16453628 0.130824 0.23611856 -0.11891428 0.1353008 -0.012836913 0.2511037 -0.0955947 -0.22606945 0.024705812 0.08878745 0.13757381 -0.23924302 0.02348654 0.25398335 -0.099612184 0.017786575 -0.08943372 -0.15336697 0.22623433 -0.11659825 -0.11012137 0.14004116 0.11339573 -0.22317535 0.047848973 -0.10327158 -0.12785202 0.06555962 0.14540124 0.102835335 -0.086081274 0.13788262 -0.05461591 0.18595853 -0.05776901 -0.022024084 0.16638821 0.019744037 0.029702768 -0.14017655 -0.105231516 -0.031350497 -0.006574618 0.28399613 -0.1326012 0.18096042 -0.09973236 -0.28895637 -0.16485015 -0.08762266 0.16546862 -0.07240457 -0.15114813
11 -0.25430667 0.25251612 -0.26314026 0.11096526 -0.16938461 -0.0116285635 0.06820768 0.12666717 -0.00967212 -0.10102329 0.04461264 -0.20354019 -0.1355889 -0.05434839 0.1550705 -0.035421778 -0.0601892 0.015199052 0.159937 -0.06577092 -0.06791619 -0.37335435 0.26132765 0.081758335 0.09390973 0.07754202 -0.009106264 0.3002364 -0.1011532 0.07140689 0.30333602 -0.06285622 -0.1289265 0.16340563 -0.040213622 -0.2847997 -0.30273494 0.3991407 0.21352148 0.061581496 -0.009654582 0.13896678 -0.09998327 -0.07606553 0.2862889 -0.17379215 -0.19223681 -0.18596946 -0.033282157 0.1017655 -0.029353382 -0.049736537 0.25269267 -0.20053993 0.017195126 -0.21788195 0.10861229 0.16209653 0.1017426 -0.02345734 -0.19370462 -0.17750037 0.3252757 -0.04857638 -0.38232347 0.31751156 -0.024983028 -0.086382166 -0.1305126 0.07328714 -0.26229787 -0.14794901 -0.031724904 -0.00784713 0.1796762 0.08026644 0.22187118 -0.12167102 0.25894776 0.030617563 0.17624295 -0.006484928 -0.21367796 0.23116706 0.24938203 0.07706364 -0.16816762 0.03487372 0.23297924 -0.22358118 -0.12969567 0.012502448 -0.113267094 0.20564632 0.19032077 -0.10527403 0.28188702 -0.069052175 -0.19677044 0.01080805 -0.037790753 -0.019686213 -0.0013439213 0.22308838 -0.07508994 0.15723763 -0.02693004 -0.00574831 -0.091165856 -0.025023984 0.09079683 0.031868957 0.012261862 -0.14159335 0.19401386 -0.09032323 0.14559379 0.02684639 0.088639595 0.009571048 -0.0440173 -0.18321338 -0.012883562 -0.10301949 -0.023614835 -0.12370273 -0.010866695 -0.18000172
154 -0.050684392 0.18116003 -0.16670398 0.06368923 -0.06947361 -0.07210212 -0.044925824 0.077273406 0.015023334 -0.12612368 -0.12694368 -0.15945493 -0.21650936 -0.07375174 0.063103445 -0.006001368 0.04140353 0.112528086 0.12918633 -0.21371605 -0.12242491 -0.25128362 0.10620542 -0.1877877 -0.011303189 0.19333157 -0.00409385 0.039181177 -0.11079407 0.037439797 0.1709911 -0.034399293 -0.009471331 0.33963576 0.04496325 -0.30647716 -0.22128034 0.29836857 0.26775315 0.07057273 0.09438365 0.14857985 -0.1561714 -0.07258471 0.19682208 -0.2749675 -0.238001 -0.085014105 -0.0141032515 0.0265269 -0.12313626 0.20907275 -0.17899552 -0.04150068 0.02718632 -0.17644064 -0.050834436 0.29347816 0.058370907 -0.15259339 -0.10043145 -0.15503998 0.42195657 0.051803224 -0.33109066 0.22604893 -0.015934488 -0.26739493 -0.12648417 0.13762496 -0.32239395 -0.09055519 -0.002213932 -0.04641423 0.100385845 0.007489456 0.2852674 -0.3696869 0.2039502 -0.035852358 0.31275174 -0.044064168 -0.32815105 -0.015518446 0.25607517 0.06842841 -0.25909668 0.24073915 0.26219878 0.009178148 -0.037800208 -0.008917209 0.038537703 0.2533764 0.03597575 -0.18395387 0.12635598 -0.009077507 -0.31773263 -0.2450498 -0.16878161 -0.08364089 -0.072765395 0.2568193 0.07139907 0.0733529 -0.014930549 -0.24420609 -0.092849575 0.2597017 0.056784414 0.118222564 -0.067748874 0.00021563066 -0.078233786 0.018160023 -0.11856253 -0.06490599 0.13088788 -0.0593226 -0.03765927 -0.24967287 -0.10933847 -0.06336715 0.16453584 -0.008374813 0.025813567 -0.16420424
56 0.0027631526 0.18377838 0.029865254 0.19648035 -0.11849597 -0.0078069028 -0.13477969 -0.14627832 0.12008989 -0.15329698 0.088827856 -0.08073833 -0.046451274 -0.17244059 -0.19668104 0.162038 0.013334863 0.068364784 -0.023258768 -0.31870127 0.038527045 -0.14302784 0.11913977 0.025788503 0.119216636 0.09996135 0.101589605 -0.018144846 -0.13172737 0.06450612 0.013100462 -0.10436563 -0.12488921 0.26959592 -0.030631514 -0.46889657 -0.07400726 0.30933854 0.19319242 -0.02612066 -0.14716591 0.21263507 -0.081725724 -0.08539524 0.08732154 -0.20159544 -0.18576935 -0.094707474 0.12543456 0.13378079 0.12778011 0.03755027 -0.04960906 -0.05997409 -0.16026995 -0.10932798 0.028176308 0.20869584 -0.17656763 -0.17360339 -0.11556269 -0.13737397 0.2322033 0.2322213 -0.14127593 0.33777755 -0.28282568 0.16419445 -0.12394566 0.21316178 -0.057602473 -0.07024943 -0.059822462 -0.30148822 0.22033684 0.20096643 0.30404145 -0.100707024 0.060675133 0.1348475 0.19613771 -0.025135564 -0.15732688 -0.041214272 0.19575882 0.14798756 -0.047506444 0.018964581 0.28933272 -0.12205693 0.012675865 -0.0118766995 -0.040652905 0.2104862 -0.11066013 0.012560424 0.15795268 0.16217282 -0.06413267 0.027965795 -0.054819454 -0.08496628 0.049751837 0.22463684 -0.0945107 0.027979854 0.08448286 -0.07124999 0.28193873 -0.17314823 -0.14051463 0.06853788 0.067793965 -0.09346473 0.011955127 -0.014288289 0.008675447 -0.0007977579 0.15812993 -0.19761516 0.10321884 -0.21942087 -0.09710255 -0.040455826 -0.061727345 0.0994729 0.0689779 -0.13948444
129 0.04563979 0.22993857 0.040915858 0.1117384 -0.058769315 0.098635115 -0.15937969 -0.098740846 0.20443358 -0.047697537 0.058591787 -0.064024486 -0.09770938 -0.13492702 -0.17657255 0.15653297 0.053598367 -0.047197632 -0.0678411 -0.2234909 -0.015933547 -0.08593576 0.018299244 0.03260209 0.037211254 -0.0031470049 0.038674466 -0.046174094 -0.14788911 0.03314115 0.09242003 -0.040230233 -0.10240435 0.26387286 -0.012414536 -0.3416474 -0.049620412 0.3143896 0.21311702 0.01730185 -0.010822847 0.25170484 -0.06409322 -0.11984709 0.041244745 -0.14311858 -0.18503033 -0.03553185 0.07664965 0.2078423 0.057043355 0.09271779 -0.14745797 0.031003224 -0.05361106 -0.010384091 -0.05481163 0.21718366 -0.060261536 -0.22239234 -0.09347929 -0.20406576 0.23001717 0.12518421 -0.12017379 0.33395943 -0.15320677 0.06304762 -0.18232131 0.12841435 -0.068138614 0.018215558 -0.040134273 -0.14174613 0.20294291 0.14760986 0.23992513 -0.09716531 0.089529 -0.02399362 0.22582948 -0.06705385 -0.15333879 0.0419182 0.18800652 0.046706382 -0.16374059 0.13803744 0.17740716 -0.067214504 0.034908723 -0.048145834 -0.06769885 0.27152804 -0.15865944 -0.09072157 0.115214214 0.08278698 -0.21172507 0.012963836 -0.12222015 -0.15853946 0.05938724 0.14967321 0.060401835 -0.056952294 0.060809765 -0.099046886 0.14150693 0.029558705 -0.1286144 0.12574221 0.032834172 -0.07329063 -0.086207926 -0.056130726 -0.024786986 0.012017594 0.2991688 -0.16456579 0.11284331 -0.24206619 -0.25730693 -0.12778927 -0.0033734092 0.14804074 -0.028621333 -0.10395549
43 0.059126087 0.19499321 -0.021458091 0.087307684 -0.15232117 0.26024723 -0.07365065 -0.09114747 0.11524832 -0.09798999 0.04147774 -0.08095276 0.0046021175 -0.09763692 -0.034841817 0.28514028 0.053329322 -0.111489505 -0.073678896 -0.23335397 -0.16425276 -0.24552228 -0.08528455 0.16307862 0.1372345 -0.1440825 0.06329094 0.05981173 -0.2486235 -0.020929797 0.080450796 -0.01941335 -0.15039262 0.23661916 0.14220421 -0.4496214 -0.119256675 0.1949471 0.19707566 0.094797865 0.082775995 0.32459095 -0.13491152 0.025432404 0.07483378 -0.04572007 -0.3161401 -0.1032132 0.10365259 0.26398796 0.10467314 0.122960985 -0.115873665 0.0005128226 -0.029350538 0.00018999554 0.11543013 0.31971076 -0.058131956 -0.25963572 -0.02224914 -0.103507675 0.12980093 0.12897432 -0.15741962 0.3678402 -0.17653134 0.071265265 -0.1634263 0.11627095 -0.09966881 -0.07422848 -0.08704778 -0.21682256 0.16737069 0.054640945 0.19160351 0.01851521 0.087459296 -0.011428987 0.1182491 -0.0077570337 -0.09655725 -0.00010444757 0.15691593 -0.030385792 -0.21280442 -0.04105377 0.07697483 -0.22443582 -0.00881978 0.014568637 2.360635e-05 0.29477432 -0.047879726 -0.19019638 0.20727667 0.11471801 -0.26085064 0.054258257 -0.040342882 -0.30096844 0.100301884 0.09558792 -0.055009753 -0.017662693 0.16929798 0.03685688 0.123658665 0.072489485 -0.037680767 0.09086895 -0.07140991 0.09260643 -0.15937279 -0.095918715 -0.1209907 0.16610728 0.36484504 -0.03045344 0.24887289 -0.22823878 -0.305206 -0.16815718 -0.0728758 0.035001326 -0.06789264 -0.08974555
152 0.107628904 0.073572844 -0.07203465 -0.011859448 -0.21877474 0.1642779 -0.054945752 0.027783213 0.12539674 -0.10336376 -0.005864347 -0.14858215 0.009234819 -0.02775386 0.019717205 0.16131584 0.03613974 0.0165362 -0.06586974 -0.20449595 -0.21711898 -0.17604175 -0.063993216 0.024542803 0.039632738 -0.03146398 0.007071293 0.030871477 -0.17384525 -0.07453273 0.16256791 0.022276975 0.026339646 0.18325414 0.11584075 -0.44938913 -0.18785942 0.14352612 0.16692735 0.04792662 0.08965186 0.29045734 -0.1525266 -0.033243805 0.12776111 -0.1591969 -0.3915555 -0.14409563 0.088452466 0.10797879 -0.048750587 0.14992322 -0.12905942 -0.018054482 0.03562494 -0.09394625 0.08604318 0.33341286 0.060684815 -0.20997077 -0.009361947 -0.10007166 0.20980342 0.034618743 -0.2184371 0.25803804 -0.1979338 -0.025891293 -0.10901088 0.019876178 -0.06000149 -0.05897062 -0.13919085 -0.13565436 0.15743372 0.038434897 0.2613038 -0.07249894 0.072884515 -0.078065515 0.17081678 0.013175124 -0.14440872 0.012636922 0.17697904 -0.079610884 -0.1571903 0.0054804157 0.027102869 -0.14506003 0.11250955 0.060337797 0.13650398 0.36498117 -0.06477133 -0.08937309 0.15868983 0.055636458 -0.18318316 0.00060005684 -0.08053031 -0.2512469 0.09141147 0.18006152 -0.07413682 0.011880288 0.11325772 -0.0034685882 0.07795067 0.18758714 -0.018869264 0.11466762 -0.11306703 0.1620281 -0.09664496 -0.01426387 -0.12427462 0.1340943 0.33771965 -0.029093714 0.2102909 -0.27655187 -0.23368268 -0.14395562 -0.004724595 0.027375782 -0.084976494 -0.11342089
79 -0.20790398 0.15618192 0.21916519 -0.31885743 -0.15769142 -0.10875255 -0.2310021 0.24820204 0.33280703 0.2210102 0.07797645 -0.039477542 -0.4428259 0.016264634 0.07138514 0.18584749 -0.08423415 -0.21773356 -0.21149646 0.040118903 0.1298961 -0.07432529 -0.16308723 0.05776021 -0.071828656 -0.063665815 -0.032868993 -0.17428188 -0.13976167 0.08304823 0.102535464 -0.09326456 -0.036365174 0.44788003 -0.3494926 -0.39940938 -0.14242493 0.34402722 0.007813861 -0.18107247 0.016598826 0.11435951 -0.053587165 -0.29771364 0.10689164 -0.24715327 -0.21561843 -0.19899762 0.11723937 0.08790921 -0.08718354 0.12451913 0.2311505 -0.23180172 0.115079395 0.042431112 0.23087895 0.11191501 0.20867741 0.2604971 0.27398983 0.22817829 0.032906916 -0.25651693 -0.08058079 -0.15696266 -0.32474017 0.31696215 -0.438987 0.20170084 0.3322173 -0.22126703 0.039572615 -0.09368573 0.05101043 -0.1178205 0.10251585 0.09103677 0.24078366 -0.43371552 0.16965555 -0.07208982 0.23886672 0.39713147 -0.27895746 -0.23847096 -0.6442921 0.2970062 0.015768107 -0.083137706 -0.117243275 -0.13596505 -0.25388125 0.17461273 -0.20931593 0.049879175 0.044237845 -0.17458558 0.35450658 -0.28948784 -0.0019875516 0.065954395 -0.066904224 0.20117022 -0.10958004 -0.04479684 -0.15152155 -0.13810591 -0.3352092 0.14609557 -0.04195382 0.26474583 0.067479834 0.06592787 0.38415417 -0.17203291 0.02966111 0.026193112 0.2570465 -0.21517512 0.14327972 0.23526743 -0.2519475 -0.37545183 -0.1292288 0.27255768 0.10159222 0.23163317
22 0.018281806 0.3123849 0.04261734 0.2322991 -0.03612244 0.09700234 -0.13697834 -0.12851818 0.17413394 -0.05548137 0.12676214 -0.010234902 -0.20672925 -0.23129919 -0.18224247 0.18389903 0.012990749 -0.023823088 -0.02223219 -0.12192182 0.091693446 0.05216419 0.032233436 0.17052379 0.07908736 0.117807314 0.11164432 -0.11185728 -0.14042257 0.09328951 0.15914287 -0.087235525 -0.14040023 0.39382988 -0.005048937 -0.25923848 -0.040888008 0.45476475 0.13599598 0.12650158 0.006443183 0.3336616 -0.08437151 -0.08375607 -0.037995655 -0.03581854 -0.08163916 -0.093057916 0.022447366 0.29996932 0.08898535 -0.038257096 -0.0011110984 0.08771419 -0.14106855 0.08057023 -0.10022063 0.10415336 -0.11306582 -0.16578731 -0.20823671 -0.258386 0.24718733 0.15162715 -0.07870489 0.47597238 -0.13237861 0.15519594 -0.19150275 0.18687227 -0.16058823 0.08211163 -0.04593705 -0.21237211 0.30964825 0.2737681 0.32962963 -0.02775869 0.15571907 -0.13227147 0.31129864 -0.042069234 -0.25182948 0.01343956 0.22528617 0.19307773 -0.13886046 0.10351314 0.2963996 0.03222662 0.0021629876 0.0681724 -0.11668471 0.13008285 -0.26806477 -0.17262842 0.14106435 0.048526015 -0.20194322 0.09119679 -0.2749026 -0.14456448 0.0029974962 0.12300744 0.12871598 -0.018441446 0.12630697 -0.12749928 0.29458928 0.020792259 -0.15441689 0.080152 0.12455435 -0.035921168 -0.036716472 -0.012670124 0.21333952 -0.075825945 0.31429246 -0.10146578 0.08914027 -0.26582155 -0.28125808 -0.16057844 -0.114976056 0.19621132 0.10647069 -0.11950049
0 -0.10260275 -0.11445156 -0.15601787 0.012189244 -0.1929052 -0.11730332 -0.0007449039 0.033369377 0.14584935 -0.06488492 -0.010033935 -0.21765292 -0.036544073 -0.14107291 -0.14052266 0.13413085 0.13115716 0.05633605 0.028820336 -0.19093634 -0.0034081913 -0.12538849 0.018231425 0.023027081 0.12475639 0.012280769 0.0036954926 0.040055815 -0.23090595 -0.0043893484 0.092674345 0.048528675 -0.12357018 0.22782236 -0.065743305 -0.39578968 -0.12620266 0.22342204 0.27649555 0.038060524 -0.052442715 0.3693255 -0.1810121 -0.08249254 0.008781416 -0.17589563 -0.3346329 -0.20182627 -0.02120393 0.0685126 -0.09607114 -0.08573032 -0.029958585 0.04440925 -0.01302643 -0.0096366415 0.13923313 0.16975547 -0.0680884 -0.33152017 0.151323 0.033688437 0.056634627 0.23397201 -0.16734481 0.35088775 -0.09216986 0.121748276 -0.0033517387 0.03623404 -0.07501254 -0.13055934 -0.1430175 -0.20807642 -0.034515936 0.011553625 0.16118367 -0.14588536 0.072513185 -0.047894154 0.17276074 0.00022931752 -0.2121699 0.050651364 0.14857699 -0.035069358 -0.046601333 -0.056499846 0.11122416 -0.0979691 0.18639845 -0.026387831 0.0022365188 0.25847957 -0.12919374 0.022963883 0.20542292 0.102655865 -0.016939262 0.10626066 -0.106290966 -0.15860134 0.18967135 0.23823832 -0.060654003 -0.02469181 0.1776161 0.005402703 0.22525653 0.05495346 0.0011657531 0.20210546 -0.020656627 0.04833399 -0.18712485 0.0586077 -0.1040812 0.10637893 0.28754345 -0.19433437 0.20718126 -0.16844991 -0.20232321 -0.07006194 -0.091859646 0.0732291 -0.094569184 -0.19683456
60 0.052349456 0.3171835 0.0004748825 0.098241456 -0.023213424 0.005573884 -0.07509249 -0.123566 0.10504367 -0.09313419 0.08275013 -0.09581555 -0.10837096 -0.1632804 -0.2165696 0.19630758 0.100411914 0.013889085 4.361531e-05 -0.111236505 0.036537066 0.027958447 0.025824025 0.16571365 0.0016231495 0.09338108 0.046347637 -0.08266493 -0.10833371 0.1696886 0.11648182 -0.07926262 -0.13509949 0.3305609 -0.055946562 -0.26215118 -0.09231873 0.35137773 0.20179555 0.11357623 0.06850922 0.25503442 -0.15735495 -0.10402888 0.053506482 -0.07719724 -0.07667105 -0.0043386794 -0.04882476 0.19993624 -0.002189469 0.01481248 -0.049014922 0.09853748 -0.1279974 0.111441165 0.0018832984 0.19298746 -0.05115173 -0.21466666 -0.066189006 -0.13108478 0.20251453 0.17066172 -0.03296837 0.45621318 -0.1267007 0.13253398 -0.087939106 0.17572296 -0.016938718 0.07827978 -0.10093212 -0.25375155 0.23326127 0.1677862 0.2730144 -0.071037784 0.2242879 -0.11217152 0.27908564 -0.115165494 -0.31157705 0.035504173 0.23257011 0.15870042 -0.15208839 0.026349703 0.3266046 -0.008534444 0.046272676 0.04804499 -0.1093306 0.16423127 -0.20222838 -0.11242731 0.23171793 0.16329452 -0.1414162 0.022366943 -0.20409119 0.0017531756 0.008747631 0.20711882 0.10791854 -0.16462201 0.04591096 -0.108828045 0.12272054 0.083662525 -0.15830202 0.14033285 0.13237034 -0.019379737 0.0017678537 -0.05928582 0.14454825 0.12809077 0.24783128 -0.08266051 0.15091668 -0.231004 -0.1754915 -0.20984952 -0.13875955 0.2876149 0.040909387 -0.15906323
88 -0.04430577 -0.037230484 -0.0789976 -0.009753536 -0.14318365 0.13983388 -0.0403787 -0.024502905 -0.19960953 -0.0010066861 -0.093744695 -0.15336996 -0.009022895 -0.051701132 0.156477 0.26635566 -0.024104338 0.062022816 0.18802604 -0.104902744 -0.12804842 -0.074762225 -0.15507561 -0.08109302 0.08840269 0.06977547 -0.016054334 -0.13433766 -0.11564974 0.0006996927 0.054754272 0.05626235 -0.03446184 0.18654653 0.14767197 -0.37562633 -0.1502941 0.30935055 0.08567261 0.061018363 0.13884045 0.32337865 -0.17882898 -0.056564555 0.17241904 -0.22003719 -0.42225203 -0.15916811 -0.041694112 0.13112366 -0.1987125 -0.027622182 -0.11686842 0.13099018 -0.09138601 0.04630652 0.04739412 0.4031892 -0.19066207 -0.16617283 -0.11835334 -0.0529691 0.24927627 0.10342626 -0.08017965 0.4123716 -0.20036045 -0.038765293 -0.24019718 0.0998911 -0.2071173 -0.24266516 -0.065575734 -0.18496363 0.10190897 -0.050439205 0.20207922 0.0025677227 0.17322473 0.04410589 0.2008333 -0.0152084 -0.1417742 0.069030516 0.12524727 0.05027431 -0.1485297 0.09972349 0.15427162 -0.009433104 0.04476964 -0.021053536 0.07920039 0.26718178 -0.13901187 -0.33179104 0.24509566 0.030626662 -0.23194811 0.037758723 -0.09480494 -0.05271698 0.17382357 0.2419501 -0.023514636 0.08380217 -0.022314992 -0.025471648 0.19184136 0.24173616 -0.020156074 0.17386459 -0.028223813 0.15139578 -0.13635248 -0.022962535 -0.09625967 0.04778668 0.29840636 -0.19788799 0.110769466 -0.33780143 -0.34472463 -0.15566738 0.0029956046 -0.033874042 0.07765095 -0.14926289
153 -0.015049226 0.049240503 0.08647722 0.20224285 -0.1576655 0.032224346 -0.16467653 -0.028632272 0.06980205 -0.112875424 0.13936022 -0.18784247 -0.13765998 -0.12548608 -0.077328645 0.22318666 0.08505203 -0.08530768 0.027728835 -0.2082211 -0.024287518 -0.20496331 0.0003769934 0.10512359 0.19003347 0.028556138 0.049799517 0.032398913 -0.16354781 0.08424652 0.04556717 -0.06454495 -0.25072303 0.1766224 0.0033484902 -0.39441717 -0.053924788 0.3422884 0.14877214 0.2365751 -0.22516605 0.18682747 -0.15157063 0.06017329 -0.036553655 -0.18973918 -0.3862857 -0.014228786 0.22525457 0.22793713 0.03185012 -0.058666375 -0.09236367 0.028609397 -0.11422579 -0.07489984 0.16413637 0.20212832 -0.097110495 -0.13004094 0.004713687 -0.10884676 -0.020119864 0.19547178 -0.14098325 0.41759786 -0.23669234 0.05393438 -0.18156826 0.12436519 0.030975811 -0.08182202 -0.004268636 -0.18664484 0.1167601 0.029237697 0.23937851 -0.21367884 0.11604994 0.034315825 0.17022806 -0.068295844 -0.24906151 0.07762521 0.0055413195 0.10111397 -0.18209672 -0.097795025 0.11024112 -0.14171696 0.08386011 -0.15216324 -0.12517697 0.32116395 -0.14035046 0.024245946 0.20021303 0.05314952 -0.19138633 0.025626387 -0.03863302 -0.05120018 0.15578069 0.24798933 0.12604655 -0.004080293 0.08160954 -0.0016708267 0.2440528 -0.08158225 0.086925715 0.17926744 -0.007830706 0.13695562 -0.21711788 -0.0076728617 -0.07877406 -0.045860995 0.22168282 -0.13635795 0.14325869 -0.11532896 -0.17541277 -0.119887196 -0.08004053 0.12452823 -0.007938399 -0.1748054
163 -0.10488931 0.10295713 0.02703185 0.025004867 -0.07528593 -0.02581769 0.031677756 0.08605894 0.012367709 -0.039029125 0.10553015 -0.1521963 -0.114266135 -0.02526082 0.025823547 0.153162 0.13361853 0.007955124 0.060239807 -0.17522183 0.014666246 -0.19597302 0.07107675 0.07787583 0.15296759 0.07404092 0.0840418 0.054094754 -0.28925148 0.142023 0.21085584 0.0058904286 -0.05337638 0.1967212 0.0018289847 -0.42344716 -0.16066453 0.42415547 0.13774772 0.05410754 -0.097492255 0.31703845 -0.15070741 -0.008193739 0.17447527 -0.083058126 -0.3673956 -0.06580045 0.03661966 0.036979217 0.06580166 0.04937379 -0.15347898 0.091348715 -0.023565976 -0.2328919 0.18172364 0.12853761 -0.0046787206 -0.02046418 -0.08944266 -0.029992575 0.14973406 0.16325334 -0.19666 0.31011122 -0.22490919 -0.061956126 -0.18278943 0.13596372 -0.11187226 -0.08943094 0.05015194 -0.1317462 0.10099606 0.09319271 0.31909248 -0.08328907 0.14493987 -0.045640606 0.115452625 -0.030810904 -0.25639766 0.12428649 0.13295199 0.13886338 -0.123408854 -0.087664016 0.10117598 -0.13565646 0.06167371 0.11159856 -0.080393955 0.23378414 -0.10861619 -0.04566728 0.20055759 -0.04298041 -0.17003517 -0.021546783 -0.0408109 0.07878091 0.011589496 0.21947464 0.05287269 0.062468108 0.06003597 -0.06829416 0.20624332 0.069174305 0.058484413 0.0328825 -0.08828373 -0.009382189 -0.077030614 -0.061538126 0.02713645 0.04829319 0.2192718 -0.096560955 0.09946043 -0.18315035 -0.03674779 -0.059485096 -0.1256586 -0.06189218 -0.021468513 -0.26408735
94 -0.11363221 0.017653324 -0.09866764 0.11090602 -0.113867044 0.006640211 0.0796155 0.043733586 0.087714136 -0.020059057 -0.027958155 -0.07272584 -0.05813064 -0.08533577 -0.071354985 0.13910128 -0.0167465 0.046516933 0.01640714 -0.20699334 0.031334173 -0.16643587 -0.11413685 0.09648504 0.1976998 -0.06404335 0.07652182 0.027126763 -0.31815624 0.04607795 0.13587643 0.08260529 -0.020558113 0.27741608 0.15528364 -0.47393784 -0.14306338 0.3716622 0.26098812 -0.05635152 -0.03581864 0.40293333 -0.10459895 -0.07789404 0.050040565 -0.11704941 -0.2542796 -0.13724184 -0.05201529 0.124843135 0.04577811 -0.003087803 -0.1936989 -0.04048754 0.019899672 -0.097793914 0.14225309 0.050110538 -0.10494449 -0.2821767 0.093449675 -0.062400557 0.096817054 0.22536284 -0.1870442 0.33534604 -0.12612456 0.034251545 -0.13756487 0.074359104 -0.20270865 -0.18581921 -0.08236517 -0.22742492 0.027045151 0.012837631 0.1628262 0.011465371 0.14118187 -0.06933413 0.2418948 -0.117572136 -0.056998517 -0.0034787157 0.13775566 -0.014311071 -0.1865849 0.0034669086 0.12350173 -0.20542192 0.013162145 -0.022961637 -0.10828389 0.22391817 -0.15932132 -0.1590678 0.21770412 0.057899192 -0.11667564 0.05945553 -0.068194196 -0.17717712 0.14411254 0.15299226 0.012732732 0.0028851011 0.10817833 -0.052508764 0.18386263 0.16658226 -0.038333785 0.047181077 -0.09314588 -0.10407279 -0.15606351 -0.053828496 -0.059072025 0.18730375 0.30280492 -0.2017969 0.10165476 -0.15843062 -0.28197792 -0.09184359 -0.08593865 -0.019327963 -0.08076426 -0.23211989
5 -0.15250583 0.058555175 -0.121222556 -0.25341237 -0.030110033 0.022792738 0.02590232 0.12372851 0.12738158 -0.09833471 -0.004856724 -0.3084602 -0.088430695 -0.19686905 0.044234272 0.26241586 -0.188791 -0.12532125 0.2790832 -0.18412434 -0.18893169 -0.2650849 0.16524544 -0.11094362 -0.0077206413 -0.15779032 -0.04103689 0.17339051 0.09162633 -0.18555073 0.05152453 -0.034904037 -0.2754798 0.13935415 -0.04569736 -0.32928076 -0.24896978 0.24597846 0.27324614 -0.04960329 -0.052966483 -0.06763486 -0.071623705 0.005379513 0.32302505 -0.08594656 -0.26674607 -0.47546586 0.096389435 0.3842155 0.1073186 -0.29444316 0.25560936 -0.1570133 0.18896353 -0.03150761 0.017184108 0.3291139 -0.075007364 0.25571147 0.18578759 -0.17117608 0.09103265 -0.0966471 -0.20049557 0.3032925 -0.32428196 0.4654951 -0.011301024 0.24101016 -0.06692106 -0.4501798 -0.23531403 -0.122013085 0.08898994 -0.088857904 0.108897276 -0.06427388 0.011091805 0.19652452 0.24843273 0.0062993383 -0.29105788 0.32518208 -0.0442821 -0.18105394 -0.11861019 -0.039683104 -0.021070726 -0.183839 -0.26679793 -0.23633471 -0.04111562 0.33304587 -0.002942722 0.044447124 0.18859375 0.18660526 0.05831618 -0.13083313 0.103774264 -0.0012446127 0.024385057 0.2763901 -0.16461544 0.14797847 0.2284954 0.16850686 -0.15694945 -0.2518372 0.016759852 0.10787176 -0.12177246 -0.17523684 0.21357495 -0.34756792 0.019736018 -0.040490095 0.07750748 -0.08183869 0.12785096 0.11090656 -0.23251228 -0.29947597 0.15830979 -0.16905561 -0.09925789 -0.054815646
30 0.039498676 0.07521178 -0.12701702 -0.1674828 -0.08307 -0.014637307 -0.03196585 0.0660765 0.03311102 -0.15704821 -0.00114682 -0.27221075 -0.061983343 -0.26687562 -0.1411282 0.07414613 -0.27524996 0.08229356 0.19277464 -0.24701312 -0.21505833 -0.22308476 0.24125066 -0.08745624 -0.018285425 0.024692744 0.046382878 0.080371365 0.11065998 -0.19675599 -0.015179344 -0.08317549 -0.13104235 0.27387884 -0.01676822 -0.23858547 -0.27643666 0.2933631 0.38123968 -0.09719107 -0.10487673 -0.16097412 -0.10568099 -0.0687313 0.2231284 -0.10096451 -0.12514678 -0.24963875 -0.026679453 0.28917256 -0.006143892 -0.20618945 0.3120014 -0.043366663 0.15278532 -0.13041024 -0.12855281 0.44783124 -0.08823021 0.120517954 0.08132142 -0.17606498 0.2499776 -0.07889858 -0.1449956 0.33850965 -0.21540852 0.3239511 0.043895 0.26101944 0.051260762 -0.33864248 -0.31503966 -0.21099305 0.18974012 -0.08644784 0.17787385 -0.09086278 0.014485453 0.2790477 0.30873123 -0.049380478 -0.3426195 0.21931747 0.15384953 -0.12752807 -0.036294788 0.041804317 0.1848803 -0.088721074 -0.1354148 -0.27313465 0.17154506 0.211784 -0.102978975 -0.030149288 0.2822298 0.252078 0.052693103 -0.05255965 -0.066118434 0.03531963 -0.001675557 0.33776733 -0.24778414 -0.016321441 0.11678088 0.07989749 -0.07761825 -0.24041998 0.07649476 0.08976848 0.05805213 0.05211143 0.24251348 -0.17822644 0.04198427 0.025584957 0.043256313 -0.11069523 0.19854933 -0.16767108 -0.04489217 -0.38014057 0.08785041 -0.017552953 0.13557093 -0.008224291
189 -0.09956767 0.010817334 -0.12038666 0.015489429 -0.091954544 -0.025537457 0.085066654 -0.013515176 0.045659278 -0.070883125 0.046795636 -0.3748615 -0.09219269 -0.101459734 -0.02648988 0.1297647 0.20372754 -0.064594775 -0.020519404 -0.14090048 -0.06672194 -0.23180766 0.11229923 0.15530404 0.03147019 0.05543728 -0.078745544 -0.0084150685 -0.19148064 0.026669005 0.101045124 -0.10007204 -0.17358437 0.3137135 -0.077710256 -0.38120237 -0.17762725 0.14870866 0.22239122 0.061967958 -0.07915903 0.25757322 -0.1529983 -0.03741876 0.17031026 -0.019283729 -0.3015354 -0.1257867 0.09651942 0.029955331 -0.30297112 -0.006498086 0.123391576 0.10115414 -0.04200714 0.06780254 0.16194935 0.34141153 -0.16294672 -0.25497913 0.022955399 0.10781388 -0.008776665 0.07145946 -0.10936178 0.37532443 -0.15088855 0.11153273 -0.0038038068 0.07481094 0.100282565 -0.030841442 -0.028853228 -0.09532398 -0.137386 0.028706752 0.24660802 -0.1930993 0.26869136 -0.0011110978 0.18422976 0.079001114 -0.27224123 0.057936702 0.24335071 0.057753455 -0.09126042 -0.21876107 0.2447226 -0.05217316 0.24154676 -0.01649263 -0.20204177 0.2773146 0.015902575 0.038907215 0.27237943 0.105230935 -0.119261496 0.13675453 0.023136087 -0.030869847 0.16097742 0.25527763 -0.126904 -0.057209924 0.1105258 0.10325276 0.14633054 0.0010091051 0.036763333 0.10765678 0.07338182 0.15780698 -0.07818375 0.053541053 0.031901527 0.061666705 0.24867456 -0.0046901377 0.24779102 -0.10032096 -0.04475327 -0.10993135 -0.14760093 0.102078386 -0.08191008 -0.22822797
151 0.0074299895 0.15858261 -0.027138963 0.031906217 -0.049111035 -0.023485502 -0.03443121 0.03766123 0.08629858 -0.1058513 -0.048740044 -0.13435395 -0.0557747 -0.07647125 -0.15314728 0.19221017 0.08397828 0.06201875 0.059195735 -0.12195125 -0.06037257 -0.08150859 0.051618658 0.042242993 0.047774937 0.08343372 0.05031648 0.016484762 -0.1534246 0.16298749 0.10177241 -0.032112107 -0.08928757 0.2497038 -0.024429994 -0.2826842 -0.12481612 0.22171076 0.26659894 0.08451901 0.062283892 0.2872508 -0.22518688 -0.103660166 0.06255055 -0.1912848 -0.17985821 -0.07498052 -0.07210557 0.119345814 -0.0055706105 0.062716804 -0.12616871 0.051574707 -0.11143246 0.038669266 0.0817196 0.21530992 -0.010695993 -0.25297084 0.043299727 -0.047711324 0.21321459 0.21729918 -0.1700392 0.32653403 -0.12194299 0.0108011905 -0.06762677 0.15828161 -0.14379418 -0.008629953 -0.1277817 -0.22917107 0.15189707 0.043514885 0.21501951 -0.16979496 0.08826839 -0.0807177 0.16959237 -0.0959453 -0.31041658 -0.035515264 0.19830315 0.052059393 -0.13249995 0.019554825 0.23893902 -0.10951581 0.06625548 -0.0035837493 0.02191826 0.2379938 -0.06243743 -0.06399117 0.29181167 0.1476271 -0.19193977 -0.05336422 -0.12981014 -0.12005716 0.0729336 0.20851177 0.06860161 -0.08703922 0.051945787 -0.18274969 0.12067708 0.13447392 -0.08079579 0.1281958 0.01598278 -0.02046411 -0.045436904 -0.046893243 -0.087768555 0.17741448 0.17065386 -0.11938849 0.06521468 -0.2299786 -0.20933181 -0.0870983 -0.0057118973 0.20355946 -0.0007187427 -0.18414447
26 -0.07926367 -0.023451764 -0.019132853 -0.08621035 -0.14811997 -0.07740812 0.09940062 0.045464236 0.144522 -0.0482899 -0.13901967 -0.15211965 -0.13923238 -0.09679798 -0.25158337 0.25494978 0.1421614 0.036974534 0.026523251 -0.20804907 -0.024326287 -0.08689586 -0.15767725 0.09000935 0.13973933 0.03043848 0.023638342 0.08201846 -0.30564338 0.109329835 0.1962389 0.14257988 0.020438313 0.27022013 0.1799705 -0.4367195 -0.1459439 0.24615255 0.35970643 0.0070677283 -0.011746391 0.31952298 -0.09869456 -0.11526866 0.13333131 -0.13088793 -0.35176432 -0.17403115 -0.12484019 0.03241153 0.110492036 -0.06013434 -0.18703838 0.06074254 -0.035607588 0.031364433 0.24085379 0.058466002 0.016154626 -0.25660145 0.27069885 0.03499156 0.10237104 0.3004356 -0.13958123 0.25044507 -0.1865006 0.1111189 -0.19569223 0.0814949 -0.057559114 -0.15644203 -0.027609847 -0.24916671 0.01472572 -0.15411805 0.20946251 -0.096052326 0.16985163 -0.13396974 0.21608365 -0.13659976 -0.14106162 -0.0048059104 0.06366331 0.101059 -0.14265396 -0.060668766 0.16502929 -0.050200526 0.16938816 -0.031191539 -0.00043226985 0.33437032 -0.08940779 0.026684325 0.16445908 0.19016366 -0.09393136 -0.050189372 -0.056640863 -0.03571389 0.09006942 0.2686274 0.033670157 -0.047150508 0.19236702 -0.08079839 0.109855816 0.18486978 0.029797116 0.10165266 -0.15227613 0.0342647 -0.10592427 -0.1446963 -0.181929 0.23096569 0.21736139 -0.18644096 0.12024395 -0.07701147 -0.24003734 -0.06907531 -0.110808566 -0.0056883045 -0.059645925 -0.2993328
13 -0.12954788 0.024222406 -0.048318002 0.027089268 -0.14109047 0.07383165 0.058236066 0.16646808 -0.07933213 -0.16144179 -0.17484497 -0.37283286 -0.10525051 -0.0745784 0.10649623 0.20504433 -0.033113156 -0.025436714 0.2155412 -0.051068176 -0.20904692 -0.19112343 0.0052674557 0.006919611 0.11159212 -0.051303573 -0.12810978 -0.011924073 -0.10178139 -0.024343073 0.18094261 -0.09267424 -0.11346044 0.1814816 0.19263989 -0.2911496 -0.21009643 0.25664958 0.20903584 0.14201258 0.118692935 0.10357364 -0.07526896 0.08382396 0.13983673 -0.025952104 -0.26228663 -0.17043386 -0.025398098 0.18728071 -0.15156871 -0.055727903 -0.04004373 0.019471724 -0.0022202572 -0.03512538 0.104668185 0.39943105 -0.1607722 -0.07657869 0.0065556318 -0.07821281 0.18537195 0.043172285 -0.19534288 0.38339204 -0.06565785 0.07759724 -0.20658916 0.10584459 -0.35018164 -0.20684333 -0.011478349 -0.08970453 -0.06949728 -0.21273698 0.22888038 -0.23038612 0.18017605 0.12205713 0.3660148 -0.0049948664 -0.21311192 0.1372087 0.08908908 0.064209096 -0.14225312 -0.02675135 0.15870765 0.030099904 -0.04218653 -0.11149688 -0.018691273 0.3502792 0.053907815 -0.23789819 0.25786176 -0.002915998 -0.37489137 -0.12382645 0.01618149 -0.053794283 0.06647889 0.33500558 0.00889258 0.035864986 0.03857422 -0.035286173 0.0035149707 0.11252073 0.06685967 0.12896918 -0.037790425 0.07358999 -0.116433136 -0.11814681 -0.06635874 0.07106349 0.13755758 -0.0041450383 -0.0049343933 -0.11766827 -0.28197342 -0.09661971 0.07186256 -0.062152166 0.005692339 -0.272004
138 -0.13259476 0.01120407 -0.023669913 0.25152156 -0.23829809 0.19609192 -0.098723136 0.13851911 -0.10895675 -0.096771486 -0.0441192 -0.23096469 -0.088798 -0.0648 0.1349409 0.2363614 -0.042761434 -0.09800886 0.13683584 -0.001273322 -0.09702105 -0.13417844 -0.13282056 0.0059541813 0.21363728 -0.08802483 -0.07976212 -0.15073895 -0.052965414 0.024305964 0.09690932 -0.10758072 -0.14785519 0.22142652 0.15548626 -0.31773597 -0.062406417 0.2849155 -0.031847123 0.17146067 0.052048914 0.29807964 -0.14644915 0.02391395 -0.017603895 -0.1274263 -0.3042845 -0.16107418 0.098178014 0.25720572 -0.23996446 -0.04613206 0.05555953 0.0407562 -0.06840516 -0.007260145 0.08399742 0.3680147 -0.21816391 -0.07963406 -0.10863756 -0.118103296 0.2113382 0.024176773 -0.16172715 0.40107262 -0.073365584 0.07932934 -0.22625628 0.033753626 -0.25461987 -0.19148695 0.013853639 -0.089700684 -0.037967697 -0.0737702 0.16681357 -0.09048055 0.16942866 0.0034496824 0.3213012 0.07042992 -0.087019295 0.06412411 0.06726955 -0.004059581 -0.15888016 -0.012687292 0.13081838 0.0005111426 -0.0086472975 -0.060550287 -0.028801959 0.2855281 -0.056219336 -0.302264 0.21502496 -0.113443814 -0.28227106 -0.065785125 -0.06357467 -0.15770027 0.18269448 0.2607627 -0.012012569 0.074092425 -0.110987924 0.025542108 0.23192827 0.14622033 -0.016251352 0.21953085 0.008813908 0.18608601 -0.23666544 0.05245224 -0.015702173 -0.03790693 0.22901303 -0.091515094 0.027939843 -0.19933833 -0.305883 -0.074577495 0.0018351604 0.075271904 0.1802219 -0.16779514
150 -0.23011889 0.23293613 0.2773902 -0.2653933 -0.07024183 -0.20317054 -0.22606176 0.32235828 0.31413054 0.16437298 0.15467258 -0.103516884 -0.3227612 0.0745201 -0.07306359 0.18413354 0.045251604 -0.21825597 -0.20291595 0.016002186 0.19668908 0.04066465 -0.13482949 0.055030614 -0.08706044 -0.09031078 0.032681704 -0.30855232 -0.18754046 0.09823829 0.1394781 -0.21965328 -0.06676017 0.41739154 -0.4057617 -0.31712002 -0.006862309 0.26568568 -0.021496637 -0.1283789 -0.03303286 0.116027884 -0.13157433 -0.26730794 -0.08233747 -0.18873374 -0.10792422 -0.13782148 0.13937542 -0.034972683 -0.16742907 0.24223179 0.13750008 -0.11678519 0.166738 -0.012696327 0.22695641 0.074320525 0.13279423 0.19829258 0.21326956 0.2278753 0.036402598 -0.20582522 -0.09446122 -0.08573144 -0.21110797 0.3046055 -0.34279376 0.09585911 0.34490737 -0.12662652 0.067675106 -0.118755385 -0.036130372 -0.10809718 0.1253521 0.03570804 0.2734935 -0.38979533 0.25595355 -0.09278602 0.016032716 0.2946257 -0.1631364 -0.21969838 -0.5758968 0.19806123 0.07465056 -0.03062364 0.02771025 -0.025377538 -0.22818686 0.22402944 -0.18483014 0.17323734 0.09281121 -0.27331346 0.35544506 -0.2973949 -0.04673096 0.069970995 -0.0335154 0.2033186 -0.15278053 -0.104352854 -0.2326452 -0.070236094 -0.1758996 0.1358411 -0.159787 0.24959923 0.178755 0.0027500086 0.32731682 -0.15174022 0.041129827 0.07983388 0.23495802 -0.10549513 0.09415061 0.18187203 -0.26604533 -0.35483703 -0.12119144 0.45520055 0.05895501 0.19707517
114 -0.13246725 0.013257946 -0.101930924 -0.06249621 -0.14702521 -0.08416324 0.040195376 0.07531015 0.20356253 -0.031386934 -0.0632281 -0.18050045 -0.17981151 -0.1600598 -0.1366353 0.09368733 0.05794913 0.08542938 0.078017496 -0.22323234 0.0015903354 -0.21925123 0.0003406103 0.022851449 0.09534584 -0.009921581 -0.050363455 0.018274862 -0.2732585 0.04465013 0.16946536 0.104348734 -0.0025492597 0.2994809 0.06602969 -0.40666345 -0.21503319 0.35336214 0.27242252 -0.028475514 0.015939627 0.33663735 -0.080587596 -0.13813578 0.18259764 -0.14134246 -0.24126224 -0.1266514 -0.0770179 0.076239616 0.008049991 0.016433911 -0.15367742 -0.048208356 0.07146503 -0.14870553 0.08930125 0.06585962 -0.06483097 -0.29369843 0.13238983 -0.07917069 0.16351996 0.18967658 -0.13755924 0.2690156 -0.022823552 0.060440436 -0.056328725 0.1545641 -0.17309107 -0.12923272 -0.029525138 -0.10176848 -0.02510737 0.010097076 0.19322309 -0.16924803 0.12493461 -0.081444256 0.24019846 -0.056463964 -0.087579496 0.018928777 0.11551966 0.006932802 -0.09252486 0.047885813 0.10431507 -0.07630762 0.060493972 -0.037103515 -0.055969756 0.26125047 -0.13244097 -0.09179879 0.09793733 0.060091868 -0.10992319 -0.009219341 -0.08536285 -0.0640498 0.10835892 0.19207816 0.022340672 -0.04265284 0.17432109 -0.09687943 0.036941294 0.17498365 -0.046713337 0.13506211 -0.091303036 -0.106218696 -0.15824604 -0.06277876 -0.081156455 0.103116125 0.24243592 -0.21742909 0.08384506 -0.07177898 -0.23055017 -0.024812046 -0.05284831 -0.055362515 -0.0774592 -0.2744766
90 0.017879859 0.19870292 0.08509382 0.13565424 -0.14262073 0.08301528 -0.083395906 -0.07920398 0.12529978 -0.1558528 0.09073679 -0.18580641 -0.050733775 -0.16495728 -0.18971476 0.3147517 0.15594764 -0.02647912 -0.010915433 -0.26530957 -0.06461615 -0.07633822 -0.03109606 0.06172187 0.109323755 -0.02022689 0.036697976 -0.042368848 -0.25426388 0.09141649 -0.0070467005 -0.10852426 -0.17770384 0.27885643 0.14987552 -0.4588165 0.027579674 0.2226347 0.085977495 0.03889029 -0.06039955 0.28941795 -0.028047865 0.09072614 0.0056626983 -0.014575176 -0.23450086 -0.071114846 0.13812646 0.20083311 0.19061674 0.1207813 -0.29697445 -0.029764552 -0.08374634 -0.057964593 0.13245595 0.22084537 -0.11893691 -0.18725765 -0.0074064564 -0.10143418 0.11616112 0.204397 -0.094585076 0.42404482 -0.2678933 0.15867539 -0.16384065 0.18460485 -0.080407165 -0.073635556 0.003869128 -0.26444688 0.09672792 0.056642674 0.27532867 -0.11219916 0.09881004 0.117673516 0.21447149 -0.003144926 -0.15639934 -0.06911714 0.12047055 0.13430893 -0.10866545 -0.08087027 0.12857129 -0.06401334 0.04827892 -0.035508133 -0.033943217 0.30271053 -0.13909552 -0.03934351 0.1566138 0.15278369 -0.16221617 -0.064197965 -0.06487259 -0.065220065 0.031911068 0.25758463 0.0402747 0.029933337 0.1566487 -0.017405508 0.23019513 0.04786819 -0.10004035 0.057766203 -0.06504558 0.038620427 -0.18362154 -0.057809632 -0.041942723 0.08433006 0.26560965 -0.1175317 0.18332899 -0.12389419 -0.15514725 -0.047109555 -0.044842068 0.09306481 -0.024264455 -0.17711134
91 0.004958624 -0.11469257 0.045700613 -0.113244556 -0.053555217 0.12909003 -0.10155321 -0.046869643 0.0037224698 -0.032190826 -0.071917035 -0.1381908 -0.02361423 0.054543506 0.0724927 0.2374775 0.067007266 -0.07045736 -0.015264394 -0.2491471 -0.06340272 -0.11602235 0.03623318 0.0042451895 0.12940167 0.06740099 0.033880595 -0.11065378 -0.15699212 0.031114295 0.06624715 0.014992708 -0.11422591 0.21631725 -0.05591294 -0.4060274 -0.085233726 0.21963185 0.27159292 0.11564379 -0.00010652922 0.17730491 -0.17509979 -0.03477803 0.088437125 -0.21862987 -0.41213444 -0.03374979 0.09629509 0.058302883 -0.1117311 0.07886463 -0.13476604 0.21069029 -0.17791308 0.0041848323 0.018830586 0.412114 -0.090596095 -0.1579727 -0.07357547 0.09746036 0.07660373 0.23517917 -0.15214188 0.1905848 -0.30667254 -0.055833314 -0.30402523 0.19568127 -0.0032766263 -0.029308664 -0.050204005 -0.11481103 0.118362166 -0.024077797 0.25920734 -0.15487996 0.03290602 0.053677674 0.06322087 -0.03640439 -0.20970874 0.13576923 0.0496447 0.014430667 -0.23832498 0.00029328003 0.14222094 -0.040200684 0.08985233 -0.05557937 0.036459893 0.25334415 -0.026973592 -0.07646104 0.21237014 0.01360465 -0.19674776 0.032460928 -0.019982243 -0.1659473 0.095924154 0.13522007 -0.012335595 -0.01790423 -0.005014631 -0.11860222 0.21258573 -0.099992365 0.124198794 0.20014195 0.042630438 0.2060007 -0.12473793 -0.006448146 -0.21509597 0.016520116 0.27721468 -0.19610609 0.11395521 -0.20936513 -0.28235075 -0.08668356 -0.025410915 0.1199342 -0.03495728 -0.060345642
135 -0.07536838 0.0009644772 0.039002728 0.036432937 -0.072066694 -0.025939126 -0.024023097 -0.018579202 -0.01934735 -0.018928055 -0.07926752 -0.08162311 -0.07713931 -0.058927618 -0.07556081 0.27485695 0.069347106 -0.008497616 0.09381534 -0.1652503 0.03979361 -0.024630751 -0.11677059 0.0050195777 0.113926254 0.058207124 0.072133936 -0.12241877 -0.18555485 0.13268478 0.05005695 0.027454004 -0.07544226 0.20570065 0.082099736 -0.41083482 -0.060341075 0.3009908 0.23712677 0.024432803 0.002749467 0.300016 -0.13382205 -0.054418024 0.09080327 -0.19728793 -0.28254253 -0.090814054 -0.01223091 0.095967114 0.024881158 0.036699485 -0.24275897 0.06606234 -0.16770169 0.040486693 0.074827634 0.14884938 -0.10873025 -0.18704467 0.04460456 0.033408027 0.14222991 0.3033426 -0.09545495 0.27248284 -0.26230887 0.021891506 -0.2639201 0.16753156 -0.16593336 -0.072243124 -0.040580764 -0.24400783 0.12276208 -0.03263279 0.21820316 -0.050331023 0.14738227 -0.024586061 0.18431146 -0.15231802 -0.12360899 -0.006832879 0.044440422 0.115047514 -0.22277835 0.042379085 0.18991688 -0.043139968 0.015362401 0.0018299636 -0.082743086 0.22269064 -0.11201437 -0.12477204 0.15931936 0.11602331 -0.1337526 -0.09177569 -0.042956676 -0.043451928 0.074652426 0.20601599 0.10551137 -0.012184486 0.0036660677 -0.16034707 0.15801588 0.12098736 -0.053224087 0.10784967 -0.04137585 -0.06688489 -0.124129444 -0.08361293 -0.11838988 0.12957086 0.19936055 -0.19602323 -0.01090433 -0.13380384 -0.28405803 -0.044419333 -0.06020931 0.122065164 -0.031610005 -0.17983197
177 -0.12706698 0.0046095913 -0.1365089 -0.113347806 -0.07229038 -0.050347134 0.05462524 0.055900697 -0.004276648 -0.23366582 -0.10813271 -0.37598082 -0.07093713 -0.22563158 -0.059981685 0.18926018 -0.22428358 0.06612911 0.3974935 -0.26309127 -0.19153407 -0.1851135 0.14747666 -0.1310374 0.0750756 -0.13177675 -0.037270293 0.06659201 0.01765188 -0.20716377 0.07613611 -0.035735022 -0.22881487 0.1377117 0.051847547 -0.4252887 -0.19566041 0.27713564 0.28105122 0.0043068025 -0.06576907 -0.13217403 -0.058123007 0.09442463 0.17175615 -0.14315836 -0.24870837 -0.3298323 0.044717245 0.26687175 0.09698072 -0.2696965 0.11465739 -0.116330646 0.22772408 -0.1522206 -0.020317301 0.40576878 -0.13379763 0.16148834 0.15627901 -0.1372647 0.17269053 0.048888516 -0.19040024 0.35819334 -0.20994152 0.33558413 -0.031954482 0.25965384 -0.19780242 -0.37906075 -0.19907856 -0.19002047 0.034864023 -0.083237045 0.16601042 -0.1113295 0.039339013 0.30354938 0.41560107 -0.080849014 -0.34739774 0.25612122 -0.024775133 -0.07436924 -0.07121673 -0.043262657 0.058905214 -0.034065682 -0.14623152 -0.17577776 0.07681835 0.33757403 0.0055303723 -0.031457953 0.20975478 0.20290978 -0.01601439 -0.10952934 0.04601422 0.059479102 0.0013700525 0.31829813 -0.15662135 0.06777529 0.16797198 0.09241182 -0.11300703 -0.22270824 0.036925595 0.14996122 -0.05187402 -0.07521426 0.13177639 -0.28423902 0.08002157 0.043875154 0.034659963 -0.10805086 0.058356848 0.1415367 -0.19947283 -0.2622733 0.047326088 -0.11753942 -0.06701237 -0.14397365
52 -0.04568757 0.016711747 -0.27760464 0.03317308 -0.091081396 -0.15240985 -0.007308105 -0.0217375 0.021361424 -0.2212083 -0.060596373 -0.2842514 -0.10851359 -0.2696029 -0.15383951 -0.005971569 -0.16978551 0.14519124 0.10964393 -0.2755792 -0.08820593 -0.19962671 0.23902914 0.018044459 -0.042870063 0.07204602 0.08574708 0.068549626 -0.0036054505 -0.19074182 0.014294058 -0.09776004 -0.14802684 0.3394676 -0.090009004 -0.31788424 -0.26382354 0.31326017 0.45972964 -0.06378896 -0.21062863 -0.06398131 -0.122738995 0.009166498 0.06299395 -0.16522415 -0.13412343 -0.25857484 0.01083751 0.18625912 -0.15680206 -0.23063627 0.2939747 -0.021146072 0.17908384 -0.030187668 -0.13161458 0.36383617 -0.09655613 0.002586915 0.12910119 -0.07595933 0.12587093 -0.03292439 -0.17627071 0.3470269 -0.10633075 0.16179352 0.12623502 0.12423567 0.025528198 -0.189207 -0.33966446 -0.22058628 0.047621086 0.0288421 0.19437568 -0.15506746 0.056627084 0.09767057 0.35330614 -0.076960176 -0.38382137 0.09526487 0.21265239 -0.10036627 -0.01630194 -0.03608904 0.23352131 -0.08793848 0.03180027 -0.1508393 0.0076847556 0.119322754 -0.09913546 0.0974497 0.2301697 0.19810656 0.016708793 0.11495532 -0.07087862 -0.12493949 0.06823292 0.27912167 -0.1914383 0.02945664 0.12184976 0.08564138 0.012690607 -0.22108746 0.12909338 0.05983711 0.06765098 0.05597708 0.11805801 0.020082038 0.21722646 0.040903054 0.008042781 -0.08656876 0.17341869 -0.16318242 -0.019494673 -0.28959635 0.017792234 0.0141920475 -0.027296524 -0.02821026
